{"learner":{"attributes":{"best_iteration":"199","best_score":"1.10739324747004","scikit_learn":"{\"_estimator_type\": \"regressor\"}"},"feature_names":["year","month","Lantitude_band1","Longtitude_band1","UnixTime_band1","aspect_band1","slope_band1","DEM_band1","VIIRS_band1","VIIRS_band2","ERA5Land_band1","ERA5Land_band2","ERA5Land_band3","ERA5Land_band4","ERA5Land_band5","ERA5Land_band6","ERA5Land_band7","ERA5Land_band8","ERA5Land_band9","ERA5Land_band10","ERA5Land_band11","ERA5Land_band12","AOD_band1","AOD_band2","AOD_band3","CT2019B_band1","landscan_band1","odiac1km_band1","humanfootprint_band1","OCO2GEOS_band1","CAMStcco2_band1","CLCD_band1","MODISLANDCOVER_band1","MODISLANDCOVER_band2","MODISLANDCOVER_band3","MODISLANDCOVER_band4","MODISLANDCOVER_band5","MODISLANDCOVER_band6","MODISLANDCOVER_band7","MODISLANDCOVER_band8","MODISLANDCOVER_band9","MODISLANDCOVER_band10","MODISLANDCOVER_band11","MOD13A2_band1","MOD13A2_band2"],"feature_types":["int","int","float","float","float","float","float","float","float","float","float","float","float","float","float","float","float","float","float","float","float","float","float","float","float","float","int","float","float","float","float","float","float","float","float","float","float","float","float","float","float","float","float","float","float"],"gradient_booster":{"model":{"gbtree_model_param":{"num_parallel_tree":"1","num_trees":"200"},"iteration_indptr":[0,1,2,3,4,5,6,7,8,9,10,11,12,13,14,15,16,17,18,19,20,21,22,23,24,25,26,27,28,29,30,31,32,33,34,35,36,37,38,39,40,41,42,43,44,45,46,47,48,49,50,51,52,53,54,55,56,57,58,59,60,61,62,63,64,65,66,67,68,69,70,71,72,73,74,75,76,77,78,79,80,81,82,83,84,85,86,87,88,89,90,91,92,93,94,95,96,97,98,99,100,101,102,103,104,105,106,107,108,109,110,111,112,113,114,115,116,117,118,119,120,121,122,123,124,125,126,127,128,129,130,131,132,133,134,135,136,137,138,139,140,141,142,143,144,145,146,147,148,149,150,151,152,153,154,155,156,157,158,159,160,161,162,163,164,165,166,167,168,169,170,171,172,173,174,175,176,177,178,179,180,181,182,183,184,185,186,187,188,189,190,191,192,193,194,195,196,197,198,199,200],"tree_info":[0,0,0,0,0,0,0,0,0,0,0,0,0,0,0,0,0,0,0,0,0,0,0,0,0,0,0,0,0,0,0,0,0,0,0,0,0,0,0,0,0,0,0,0,0,0,0,0,0,0,0,0,0,0,0,0,0,0,0,0,0,0,0,0,0,0,0,0,0,0,0,0,0,0,0,0,0,0,0,0,0,0,0,0,0,0,0,0,0,0,0,0,0,0,0,0,0,0,0,0,0,0,0,0,0,0,0,0,0,0,0,0,0,0,0,0,0,0,0,0,0,0,0,0,0,0,0,0,0,0,0,0,0,0,0,0,0,0,0,0,0,0,0,0,0,0,0,0,0,0,0,0,0,0,0,0,0,0,0,0,0,0,0,0,0,0,0,0,0,0,0,0,0,0,0,0,0,0,0,0,0,0,0,0,0,0,0,0,0,0,0,0,0,0,0,0,0,0,0,0],"trees":[{"base_weights":[4.990563E-4,-1.5923973E0,1.5610688E0,-8.128383E-1,-2.8183682E0,9.130819E-1,2.3739429E0,-1.4262649E0,-2.554229E-1,-3.3702686E0,-6.0697657E-1,1.2045525E0,-1.2992326E0,2.5541384E0,5.76596E-1,-1.1087227E0,-2.0116608E0,-3.7669796E-2,-1.0197693E0,-2.630795E0,-4.2837315E0,7.639987E-1,-7.6498616E-1,7.6347584E-1,1.6085956E0,-5.887982E-1,-3.9137595E0,2.1093278E0,2.8486347E0,2.3866346E0,1.7405516E-1,-1.4870148E0,-6.1863345E-1,-2.5041344E0,-1.6426378E0,-3.3043185E-1,2.8747654E-1,-1.4904938E0,-4.769574E-1,-1.3037772E0,-3.0720866E0,2.8588867E-2,-4.50099E0,-1.9251709E-1,9.1458756E-1,-1.0307378E0,-3.4962907E-1,9.690008E-1,-2.1036346E-1,5.221976E-1,1.7218285E0,7.471211E-1,-1.1586943E0,-4.215139E0,6.821461E-1,6.1973274E-1,2.172661E0,2.9634538E0,2.1169908E0,1.6151791E0,2.6657217E0,3.1062704E-1,-4.5628786E0,-1.5480822E0,-7.5039464E-1,-9.4684976E-1,-8.315635E-2,-1.9698787E0,-3.537877E0,-2.2451386E0,-1.5701431E0,-6.4588475E-1,3.2231012E-1,-3.386313E-1,4.5812967E-1,-2.4750301E-1,-1.6005853E0,4.1342485E-1,-6.992844E-1,3.3869943E-1,-1.7301306E0,-5.374093E0,-3.0246673E0,5.7895017E-1,-9.818223E-1,-4.0103374E0,-5.3335977E0,-6.111132E-1,3.5305107E-1,1.7043741E0,8.108551E-1,-9.4282025E-1,-1.4382669E0,6.785752E-2,-8.9459467E-1,4.2605948E-1,1.1115655E0,2.5163744E-2,-1.5944713E0,-6.3266283E-1,7.869963E-1,1.8353151E0,9.490607E-1,6.679999E-1,2.3403707E0,-3.328691E-1,-1.7039245E0,-2.6653993E0,-4.9152794E0,4.9519292E-1,1.4097443E-1,2.7068618E-1,1.1091815E0,1.5735863E0,2.3112803E0,1.7720906E0,3.0163383E0,1.9513044E0,2.6043293E0,1.0162455E0,1.86536E0,2.9112473E0,2.138001E0,7.6298255E-1,-2.0375249E-1,-5.4887444E-1,-2.4080632E0,-1.6561261E-1,-1.3607733E-1,-4.1445706E-2,-1.4180407E-1,-1.3007322E-1,-7.019856E-2,-2.4939392E-2,3.0929385E-2,-1.3244523E-1,-2.3753773E-1,-2.8928834E-1,-3.847754E-1,-2.0223358E-1,-2.9755902E-1,-1.242853E-1,-1.7414318E-1,-7.990639E-2,-6.679935E-3,-6.07617E-2,3.457315E-2,-2.8037764E-3,-8.305457E-2,9.87845E-2,2.3159407E-2,-4.489118E-2,1.8517578E-1,-4.0060278E-2,-1.7056267E-1,-8.927138E-2,5.7860173E-2,-1.0633477E-1,-1.8782541E-2,-8.648168E-2,1.3783585E-1,-1.3015172E-1,-2.3548722E-1,-6.618129E-1,-2.7126643E-1,-2.6221493E-1,-3.3335507E-1,1.405767E-1,2.8172225E-2,-1.9394054E-1,-2.3871224E-2,-3.8991225E-1,-5.37895E-1,-6.085914E-1,-4.2323485E-1,-4.333664E-2,-1.3470688E-1,7.337799E-2,-1.0920885E-2,1.890868E-1,-4.8003133E-2,8.445727E-2,-8.2140505E-2,-1.19962506E-1,-8.339771E-2,2.1772258E-2,-1.4900579E-1,1.416739E-1,-7.497396E-3,4.181689E-2,-1.0404064E-1,6.8788044E-2,-2.264102E-2,9.098982E-2,1.5323506E-1,-1.657388E-2,3.9212637E-2,-1.354419E-1,-4.5404816E-1,7.224268E-2,-8.667796E-2,3.049537E-2,1.1250712E-1,1.9739507E-1,1.4503638E-1,1.0426288E-1,-5.396862E-1,1.1238436E-1,4.3820165E-2,2.575409E-1,-3.200582E-2,4.9839567E-2,-1.13163196E-1,-4.055959E-2,-1.9891293E-1,6.0925573E-2,-2.9036552E-1,-5.421616E-1,-2.3218468E-1,2.7254447E-2,9.102071E-2,6.3223414E-2,1.1251374E-2,2.4765153E-1,9.297387E-2,1.698942E-1,-1.4365618E-1,2.1947478E-1,2.634901E-1,-1.2589747E-1,1.881241E-1,2.884602E-1,3.3346674E-1,1.5030114E-1,2.3864992E-1,3.003109E-1,2.1248586E-1,1.1697971E-1,-4.4854738E-2,1.1135986E-1,2.1197131E-1,3.053303E-1,1.8498246E-1,2.1631244E-1,2.524872E-2,1.08706035E-1,-1.5102354E-2,-4.839059E-2,2.765283E-2,-3.23349E-2,-2.5681874E-1],"categories":[],"categories_nodes":[],"categories_segments":[],"categories_sizes":[],"default_left":[0,1,0,0,0,1,1,1,1,0,0,0,0,0,0,0,0,0,0,0,0,0,0,0,0,1,0,0,1,0,1,0,0,0,0,0,0,0,0,0,0,0,0,0,0,0,0,0,1,0,1,0,0,0,0,0,0,0,0,0,0,0,0,0,0,0,0,0,0,0,0,1,0,0,0,0,0,0,0,0,0,0,0,0,0,1,0,0,0,0,0,0,0,0,0,0,0,0,0,0,0,1,0,0,0,1,0,0,0,0,0,0,0,0,0,0,0,0,0,0,0,1,0,0,0,0,0,0,0,0,0,0,0,0,0,0,0,0,0,0,0,0,0,0,0,0,0,0,0,0,0,0,0,0,0,0,0,0,0,0,0,0,0,0,0,0,0,0,0,0,0,0,0,0,0,0,0,0,0,0,0,0,0,0,0,0,0,0,0,0,0,0,0,0,0,0,0,0,0,0,0,0,0,0,0,0,0,0,0,0,0,0,0,0,0,0,0,0,0,0,0,0,0,0,0,0,0,0,0,0,0,0,0,0,0,0,0,0,0,0,0,0,0,0,0,0,0,0,0,0,0],"id":0,"left_children":[1,3,5,7,9,11,13,15,17,19,21,23,25,27,29,31,33,35,37,39,41,43,45,47,49,51,53,55,57,59,61,63,65,67,69,71,73,75,77,79,81,83,85,87,89,91,93,95,97,99,101,103,105,107,109,111,113,115,117,119,121,123,125,127,129,131,133,135,137,139,141,143,145,147,149,151,153,155,157,159,161,163,165,167,169,171,173,175,177,179,181,183,185,187,189,191,193,195,197,199,201,203,205,207,209,211,213,215,217,219,-1,221,223,225,227,229,231,233,235,237,239,241,243,245,247,-1,249,-1,-1,-1,-1,-1,-1,-1,-1,-1,-1,-1,-1,-1,-1,-1,-1,-1,-1,-1,-1,-1,-1,-1,-1,-1,-1,-1,-1,-1,-1,-1,-1,-1,-1,-1,-1,-1,-1,-1,-1,-1,-1,-1,-1,-1,-1,-1,-1,-1,-1,-1,-1,-1,-1,-1,-1,-1,-1,-1,-1,-1,-1,-1,-1,-1,-1,-1,-1,-1,-1,-1,-1,-1,-1,-1,-1,-1,-1,-1,-1,-1,-1,-1,-1,-1,-1,-1,-1,-1,-1,-1,-1,-1,-1,-1,-1,-1,-1,-1,-1,-1,-1,-1,-1,-1,-1,-1,-1,-1,-1,-1,-1,-1,-1,-1,-1,-1,-1,-1,-1,-1,-1,-1,-1],"loss_changes":[1.7992906E5,3.4231477E4,1.9256188E4,7.487295E3,1.6990523E4,1.3121172E4,5.250789E3,1.9356523E3,1.9096802E3,7.5149453E3,6.0324133E2,3.2027031E3,4.397995E3,1.9247344E3,1.0772053E3,1.2525488E3,6.619414E2,8.5024146E2,6.4931885E2,3.6033008E3,4.6686406E3,4.165979E1,2.7504236E2,1.7208789E3,1.1532363E3,1.4199944E3,7.037427E2,5.529082E2,7.384453E2,5.3610962E1,7.848521E2,1.704502E2,5.178634E2,8.5901074E2,8.811182E1,9.6798224E2,4.5233273E2,1.8598364E2,2.3447107E2,1.0783098E3,4.8828125E2,1.3403032E2,1.9166328E3,9.350662E0,1.90177E1,5.313977E1,2.2188861E2,5.4901855E2,4.887067E2,2.7174744E2,7.4334766E2,6.8778046E1,5.8792896E2,5.0229004E2,3.6547623E0,4.08723E1,4.6431445E2,4.7727344E2,9.2296875E1,9.192627E0,1.9171265E1,2.742553E2,5.4615173E1,6.902344E1,6.535277E1,1.5740222E2,7.3211136E1,2.6799512E2,9.5398926E1,3.027478E1,1.0300635E2,2.8104895E2,3.357724E1,1.385531E2,3.9888916E2,4.8185947E1,1.5700244E2,5.164782E1,1.7613492E2,3.9908844E2,3.2415332E2,2.8665137E2,5.5460547E2,3.7941437E1,6.002215E1,4.3398047E2,1.4290664E3,2.424941E0,3.248058E0,1.2314278E1,1.2911713E1,3.405066E1,2.330951E1,1.06648705E2,8.140411E1,2.5264276E2,4.7568066E2,8.987433E1,1.4801917E2,5.3289536E1,1.17318726E2,3.924336E2,6.528427E2,5.5340378E1,1.7082138E1,3.464994E2,2.9061108E2,1.1879993E2,4.1549902E2,2.24679E0,0E0,8.049408E0,2.2233322E1,4.0317456E2,1.6671484E2,1.10884766E2,2.9789062E2,1.7277905E2,5.1553223E1,5.922817E0,7.391327E0,1.4104248E1,2.5802917E0,1.8588727E2,7.440668E1,0E0,3.1753387E0,0E0,0E0,0E0,0E0,0E0,0E0,0E0,0E0,0E0,0E0,0E0,0E0,0E0,0E0,0E0,0E0,0E0,0E0,0E0,0E0,0E0,0E0,0E0,0E0,0E0,0E0,0E0,0E0,0E0,0E0,0E0,0E0,0E0,0E0,0E0,0E0,0E0,0E0,0E0,0E0,0E0,0E0,0E0,0E0,0E0,0E0,0E0,0E0,0E0,0E0,0E0,0E0,0E0,0E0,0E0,0E0,0E0,0E0,0E0,0E0,0E0,0E0,0E0,0E0,0E0,0E0,0E0,0E0,0E0,0E0,0E0,0E0,0E0,0E0,0E0,0E0,0E0,0E0,0E0,0E0,0E0,0E0,0E0,0E0,0E0,0E0,0E0,0E0,0E0,0E0,0E0,0E0,0E0,0E0,0E0,0E0,0E0,0E0,0E0,0E0,0E0,0E0,0E0,0E0,0E0,0E0,0E0,0E0,0E0,0E0,0E0,0E0,0E0,0E0,0E0,0E0,0E0,0E0,0E0,0E0,0E0,0E0,0E0,0E0],"parents":[2147483647,0,0,1,1,2,2,3,3,4,4,5,5,6,6,7,7,8,8,9,9,10,10,11,11,12,12,13,13,14,14,15,15,16,16,17,17,18,18,19,19,20,20,21,21,22,22,23,23,24,24,25,25,26,26,27,27,28,28,29,29,30,30,31,31,32,32,33,33,34,34,35,35,36,36,37,37,38,38,39,39,40,40,41,41,42,42,43,43,44,44,45,45,46,46,47,47,48,48,49,49,50,50,51,51,52,52,53,53,54,54,55,55,56,56,57,57,58,58,59,59,60,60,61,61,62,62,63,63,64,64,65,65,66,66,67,67,68,68,69,69,70,70,71,71,72,72,73,73,74,74,75,75,76,76,77,77,78,78,79,79,80,80,81,81,82,82,83,83,84,84,85,85,86,86,87,87,88,88,89,89,90,90,91,91,92,92,93,93,94,94,95,95,96,96,97,97,98,98,99,99,100,100,101,101,102,102,103,103,104,104,105,105,106,106,107,107,108,108,109,109,111,111,112,112,113,113,114,114,115,115,116,116,117,117,118,118,119,119,120,120,121,121,122,122,123,123,124,124,126,126],"right_children":[2,4,6,8,10,12,14,16,18,20,22,24,26,28,30,32,34,36,38,40,42,44,46,48,50,52,54,56,58,60,62,64,66,68,70,72,74,76,78,80,82,84,86,88,90,92,94,96,98,100,102,104,106,108,110,112,114,116,118,120,122,124,126,128,130,132,134,136,138,140,142,144,146,148,150,152,154,156,158,160,162,164,166,168,170,172,174,176,178,180,182,184,186,188,190,192,194,196,198,200,202,204,206,208,210,212,214,216,218,220,-1,222,224,226,228,230,232,234,236,238,240,242,244,246,248,-1,250,-1,-1,-1,-1,-1,-1,-1,-1,-1,-1,-1,-1,-1,-1,-1,-1,-1,-1,-1,-1,-1,-1,-1,-1,-1,-1,-1,-1,-1,-1,-1,-1,-1,-1,-1,-1,-1,-1,-1,-1,-1,-1,-1,-1,-1,-1,-1,-1,-1,-1,-1,-1,-1,-1,-1,-1,-1,-1,-1,-1,-1,-1,-1,-1,-1,-1,-1,-1,-1,-1,-1,-1,-1,-1,-1,-1,-1,-1,-1,-1,-1,-1,-1,-1,-1,-1,-1,-1,-1,-1,-1,-1,-1,-1,-1,-1,-1,-1,-1,-1,-1,-1,-1,-1,-1,-1,-1,-1,-1,-1,-1,-1,-1,-1,-1,-1,-1,-1,-1,-1,-1,-1,-1,-1],"split_conditions":[4.067482E2,1.1277277E1,4.082697E2,4.050538E2,1E1,1.7871744E1,2.2800394E1,2.0502563E0,4.2536E1,4.2936E1,1.0765893E2,4.0742413E2,3.6E1,4.0882336E2,6E0,4.0393945E2,1E1,4.0585336E2,2.8102145E-1,8E0,7E0,2.9136E1,4.0528693E2,4.3236E1,2E0,1.356626E-1,2.1172988E7,-1.4377035E1,2.2471716E7,2.2186E1,4.3136E1,1.1E1,1.739392E7,3.8086E1,4.0367767E2,1.2E1,1.5198624E9,7E0,9.016714E6,7E0,1.3967658E1,4.0666522E2,1.4298714E0,1.3694112E7,3.0536E1,1.7528557E1,1.2422807E0,2E0,7.87354E-4,8.753789E4,4.4736E1,4.0794403E2,2.1150476E1,3.4686E1,4.6386E1,1.6525728E-1,4.0262613E0,2E0,2.8593445E-1,5.349548E-1,4.0150452E-1,1.5304032E9,1.7897342E2,9.9E1,3.1845683E-1,1.4036852E7,2.2953872E7,4E0,3.1249782E-1,8.21879E0,1.5319185E1,2.1264516E7,2.8586E1,1.6183217E0,1.5251328E9,3.9556885E-1,2.5762326E2,1.3463277E1,1.2159408E7,4.0567285E2,4.0936E1,8.150454E0,3.9836E1,5.4016113E-1,2.523057E7,8.12164E-1,2.041627E7,9.515505E1,2.4239502E0,3.0958252E0,1.9719584E1,1.2153238E1,1.3579158E7,8.89114E6,1.0774332E7,1.3116351E3,2.6038095E-1,-3.5102906E0,3.2152382E-1,-8.499151E0,8.89114E6,1.257802E-1,1.3348254E0,5.007324E-1,3.9386E1,3.8436E1,1.8222046E-1,1.6045066E7,4.0801163E2,2.7195246E1,1.4097443E-1,-1.7445395E1,1.0483808E7,1.2834839E0,4.0866327E2,-5.2414002E0,4.1013953E2,1.4433786E1,3.2304382E-1,1.1889327E2,5E0,4.2336E1,2.6992762E1,2.1833088E7,2.776001E0,-5.4887444E-1,1.9647578E2,-1.6561261E-1,-1.3607733E-1,-4.1445706E-2,-1.4180407E-1,-1.3007322E-1,-7.019856E-2,-2.4939392E-2,3.0929385E-2,-1.3244523E-1,-2.3753773E-1,-2.8928834E-1,-3.847754E-1,-2.0223358E-1,-2.9755902E-1,-1.242853E-1,-1.7414318E-1,-7.990639E-2,-6.679935E-3,-6.07617E-2,3.457315E-2,-2.8037764E-3,-8.305457E-2,9.87845E-2,2.3159407E-2,-4.489118E-2,1.8517578E-1,-4.0060278E-2,-1.7056267E-1,-8.927138E-2,5.7860173E-2,-1.0633477E-1,-1.8782541E-2,-8.648168E-2,1.3783585E-1,-1.3015172E-1,-2.3548722E-1,-6.618129E-1,-2.7126643E-1,-2.6221493E-1,-3.3335507E-1,1.405767E-1,2.8172225E-2,-1.9394054E-1,-2.3871224E-2,-3.8991225E-1,-5.37895E-1,-6.085914E-1,-4.2323485E-1,-4.333664E-2,-1.3470688E-1,7.337799E-2,-1.0920885E-2,1.890868E-1,-4.8003133E-2,8.445727E-2,-8.2140505E-2,-1.19962506E-1,-8.339771E-2,2.1772258E-2,-1.4900579E-1,1.416739E-1,-7.497396E-3,4.181689E-2,-1.0404064E-1,6.8788044E-2,-2.264102E-2,9.098982E-2,1.5323506E-1,-1.657388E-2,3.9212637E-2,-1.354419E-1,-4.5404816E-1,7.224268E-2,-8.667796E-2,3.049537E-2,1.1250712E-1,1.9739507E-1,1.4503638E-1,1.0426288E-1,-5.396862E-1,1.1238436E-1,4.3820165E-2,2.575409E-1,-3.200582E-2,4.9839567E-2,-1.13163196E-1,-4.055959E-2,-1.9891293E-1,6.0925573E-2,-2.9036552E-1,-5.421616E-1,-2.3218468E-1,2.7254447E-2,9.102071E-2,6.3223414E-2,1.1251374E-2,2.4765153E-1,9.297387E-2,1.698942E-1,-1.4365618E-1,2.1947478E-1,2.634901E-1,-1.2589747E-1,1.881241E-1,2.884602E-1,3.3346674E-1,1.5030114E-1,2.3864992E-1,3.003109E-1,2.1248586E-1,1.1697971E-1,-4.4854738E-2,1.1135986E-1,2.1197131E-1,3.053303E-1,1.8498246E-1,2.1631244E-1,2.524872E-2,1.08706035E-1,-1.5102354E-2,-4.839059E-2,2.765283E-2,-3.23349E-2,-2.5681874E-1],"split_indices":[30,16,30,30,1,10,10,16,2,2,7,30,41,30,1,30,1,30,8,1,1,2,30,2,1,43,11,10,11,2,2,1,11,2,30,1,4,1,11,1,7,30,24,11,2,9,24,1,10,15,2,30,10,2,2,43,9,1,17,44,17,4,7,37,8,11,11,31,43,6,9,11,2,6,4,17,7,9,11,30,2,9,2,19,11,43,11,7,19,19,9,10,11,11,11,7,22,16,22,16,11,44,24,19,2,2,17,11,30,16,0,10,11,24,30,10,30,10,17,7,1,2,10,11,18,0,7,0,0,0,0,0,0,0,0,0,0,0,0,0,0,0,0,0,0,0,0,0,0,0,0,0,0,0,0,0,0,0,0,0,0,0,0,0,0,0,0,0,0,0,0,0,0,0,0,0,0,0,0,0,0,0,0,0,0,0,0,0,0,0,0,0,0,0,0,0,0,0,0,0,0,0,0,0,0,0,0,0,0,0,0,0,0,0,0,0,0,0,0,0,0,0,0,0,0,0,0,0,0,0,0,0,0,0,0,0,0,0,0,0,0,0,0,0,0,0,0,0,0,0,0],"split_type":[0,0,0,0,0,0,0,0,0,0,0,0,0,0,0,0,0,0,0,0,0,0,0,0,0,0,0,0,0,0,0,0,0,0,0,0,0,0,0,0,0,0,0,0,0,0,0,0,0,0,0,0,0,0,0,0,0,0,0,0,0,0,0,0,0,0,0,0,0,0,0,0,0,0,0,0,0,0,0,0,0,0,0,0,0,0,0,0,0,0,0,0,0,0,0,0,0,0,0,0,0,0,0,0,0,0,0,0,0,0,0,0,0,0,0,0,0,0,0,0,0,0,0,0,0,0,0,0,0,0,0,0,0,0,0,0,0,0,0,0,0,0,0,0,0,0,0,0,0,0,0,0,0,0,0,0,0,0,0,0,0,0,0,0,0,0,0,0,0,0,0,0,0,0,0,0,0,0,0,0,0,0,0,0,0,0,0,0,0,0,0,0,0,0,0,0,0,0,0,0,0,0,0,0,0,0,0,0,0,0,0,0,0,0,0,0,0,0,0,0,0,0,0,0,0,0,0,0,0,0,0,0,0,0,0,0,0,0,0,0,0,0,0,0,0,0,0,0,0,0,0],"sum_hessian":[7.238E4,3.5819E4,3.6561E4,2.1897E4,1.3922E4,2.0345E4,1.6216E4,1.0424E4,1.1473E4,1.1141E4,2.781E3,1.7977E4,2.368E3,1.4738E4,1.478E3,6.76E3,3.664E3,8.93E3,2.543E3,6.159E3,4.982E3,2.87E2,2.494E3,8.596E3,9.381E3,1.863E3,5.05E2,5.874E3,8.864E3,2.68E2,1.21E3,3.814E3,2.946E3,1.567E3,2.097E3,4.699E3,4.231E3,1.361E3,1.182E3,1.538E3,4.621E3,2.39E2,4.743E3,3.9E1,2.48E2,1.52E3,9.74E2,7.098E3,1.498E3,8.86E2,8.495E3,5.57E2,1.306E3,4.74E2,3.1E1,2.4E2,5.634E3,7.659E3,1.205E3,7.3E1,1.95E2,1.177E3,3.3E1,3.521E3,2.93E2,1.826E3,1.12E3,1.035E3,5.32E2,2.22E2,1.875E3,3.168E3,1.531E3,9.06E2,3.325E3,1.11E2,1.25E3,2.36E2,9.46E2,3.17E2,1.221E3,9.1E1,4.53E3,1.55E2,8.4E1,2.988E3,1.755E3,2.2E1,1.7E1,2.7E1,2.21E2,1.253E3,2.67E2,5.52E2,4.22E2,1.477E3,5.621E3,1.281E3,2.17E2,1.65E2,7.21E2,7.406E3,1.089E3,5.32E2,2.5E1,5.2E2,7.86E2,1.49E2,3.25E2,2.6E1,5E0,1.41E2,9.9E1,1.061E3,4.573E3,3.27E2,7.332E3,9.03E2,3.02E2,2.3E1,5E1,1.3E2,6.5E1,6.26E2,5.51E2,2.2E1,1.1E1,2.228E3,1.293E3,1.96E2,9.7E1,7.45E2,1.081E3,7.87E2,3.33E2,4.01E2,6.34E2,1.76E2,3.56E2,1.73E2,4.9E1,6.47E2,1.228E3,2.505E3,6.63E2,3.7E1,1.494E3,5.56E2,3.5E2,9.95E2,2.33E3,1.02E2,9E0,1.01E2,1.149E3,2.6E1,2.1E2,5.52E2,3.94E2,1.47E2,1.7E2,7.26E2,4.95E2,6.1E1,3E1,1.971E3,2.559E3,4E1,1.15E2,3.6E1,4.8E1,2.767E3,2.21E2,1.04E3,7.15E2,1.9E1,3E0,9E0,8E0,2.5E1,2E0,2.17E2,4E0,3.7E2,8.83E2,8E0,2.59E2,5.2E1,5E2,4.2E1,3.8E2,1.054E3,4.23E2,3.802E3,1.819E3,8.43E2,4.38E2,2.02E2,1.5E1,2.4E1,1.41E2,2.98E2,4.23E2,5.442E3,1.964E3,1.074E3,1.5E1,1.77E2,3.55E2,2.3E1,2E0,2.55E2,2.65E2,1.42E2,6.44E2,1E1,1.39E2,2.71E2,5.4E1,1.8E1,8E0,4.2E1,9.9E1,1E1,8.9E1,1.019E3,4.2E1,3.368E3,1.205E3,1.1E1,3.16E2,5.193E3,2.139E3,4.47E2,4.56E2,1.62E2,1.4E2,2.1E1,2E0,1.4E1,3.6E1,1.13E2,1.7E1,6.4E1,1E0,4.62E2,1.64E2,3.48E2,2.03E2,1E0,1E1],"tree_param":{"num_deleted":"0","num_feature":"45","num_nodes":"251","size_leaf_vector":"1"}},{"base_weights":[7.76764E-4,-1.4337156E0,1.4106536E0,-3.6708956E0,-9.430732E-1,7.8649753E-1,2.1041107E0,-4.7031593E0,-3.134362E0,-7.5824994E-1,-2.3511755E0,1.0073259E0,-1.5625334E0,2.2816331E0,7.2000813E-1,-5.8158774E0,-4.183527E0,-2.8728223E0,-3.8823364E0,-1.1639477E0,-1.9216703E-2,-1.2832595E0,-2.9353364E0,3.3736745E-1,1.2815338E0,-1.7983386E-2,-3.2416239E0,1.8997372E0,2.5689619E0,2.1171458E0,4.8715226E-2,-7.0919375E0,-5.40907E0,-3.5545805E0,-4.731289E0,-3.2630506E0,-2.5356297E0,-4.5280557E0,-3.1981235E0,-1.0524464E0,-1.9770688E0,2.4588935E-1,-9.654521E-1,-1.9853439E0,-5.8713794E-1,-4.2343483E0,-2.4345658E0,-4.8208463E-1,5.2523756E-1,2.668891E-1,1.398239E0,1.441564E0,-5.998807E-1,-3.5013716E0,3.026578E-1,2.0141406E0,1.0035359E0,2.659811E0,1.870809E0,1.8771863E0,3.0986123E0,2.0055208E-1,-4.503992E0,-8.155043E0,-5.479238E0,-5.682171E0,-3.808206E0,-4.943008E0,-3.0411296E0,-4.836787E0,-2.0382833E0,-3.9942863E0,-2.9906616E0,-2.5833879E0,-4.9180463E-2,-4.6274037E0,-1.2629361E0,-3.4065888E0,1.9817543E-1,-1.2774684E0,-6.5115523E-1,-2.3781815E0,-1.0720397E0,-4.166223E-1,3.748167E-1,-2.5457995E0,-7.367125E-1,-2.7139328E0,-1.682801E0,-8.229684E-1,3.3258155E-1,-1.0793313E0,-4.672168E0,-2.7248604E0,-6.443468E-1,1.23092845E-1,-7.810721E-1,8.204247E-1,3.4655485E-1,7.086678E-1,-1.534323E0,9.930472E-1,1.62741E0,-1.0282013E0,1.6528139E0,7.6638854E-1,-8.624812E-1,-2.5228467E0,-4.094088E0,6.955361E-1,-2.490727E0,8.011526E-1,2.0679898E0,1.3070341E0,-4.129246E0,1.607952E0,2.7067282E0,2.1421676E0,1.2531458E0,1.9608039E0,9.8020667E-1,3.1414676E0,-1.0862885E-1,6.682646E-1,-2.9433465E-1,-5.1895595E-1,-2.0378363E0,-8.494102E-1,-5.5139685E-1,-6.876046E-1,-4.6791145E-1,-5.3053445E-1,-6.5452754E-1,-3.983827E-1,-9.4897464E-2,-3.879846E-1,-6.045317E-1,-3.2414076E-1,-1.3968338E-1,-5.015157E-1,-3.4468445E-1,-5.585068E-1,-1.4787862E-1,-2.8062692E-1,-4.212586E-1,-3.1389794E-1,-2.3320091E-1,-2.0037289E-1,-2.7306184E-1,6.236667E-2,-3.9418578E-1,-4.3511277E-1,-5.1303595E-1,-3.0099487E-2,-1.3018154E-1,-3.1222737E-1,-5.024182E-1,6.466568E-2,-5.0704014E-2,-1.3362823E-1,-5.7858672E-2,-5.582387E-2,-2.0174113E-1,-2.174214E-1,-3.1208557E-1,-1.3817732E-1,-2.6306346E-2,-1.735965E-2,-9.285747E-2,7.6587126E-2,1.835849E-2,1.2109833E-1,-2.7201256E-1,-9.271353E-2,3.6984067E-2,-2.4185841E-1,-3.7501362E-1,-2.1985567E-1,-1.28486E-1,-4.209717E-3,-1.0231346E-1,7.8273915E-2,-2.2200206E-1,-1.4340878E-1,-2.5093842E-2,-5.284321E-1,-2.5857514E-1,-3.0489942E-1,-2.0306198E-1,-3.1539917E-2,-4.6312147E-1,2.0279153E-1,5.421657E-3,-1.2878783E-1,-5.9717573E-2,6.984094E-2,9.8003305E-2,-2.6866484E-2,4.4599332E-2,4.127882E-2,1.3070063E-1,-1.1485642E-1,-4.3763706E-1,5.3646356E-2,1.2216484E-1,1.4264086E-1,2.0032191E-1,-1.4654052E-1,2.3617554E-2,1.9191705E-1,7.6394655E-2,1.2586176E-2,1.8081465E-1,-1.4904249E-1,-5.85258E-2,-3.5915983E-1,-2.2038777E-1,-4.2985997E-1,-6.702667E-2,-7.652366E-2,1.0897147E-1,-2.9352826E-1,8.830261E-3,1.1275621E-1,-1.4577484E-1,2.2676753E-1,1.6807286E-1,2.353683E-1,7.149757E-2,6.978607E-2,-4.2640018E-1,1.7666236E-1,-9.635895E-2,2.580286E-1,3.142737E-1,2.2766684E-1,1.2494166E-1,1.7956986E-1,5.0380778E-2,1.8990311E-1,3.0814648E-1,4.4970855E-2,1.3368644E-1,2.8863525E-2,3.1624857E-1,9.3404606E-2,-3.2403533E-4,-9.829028E-2,5.03129E-4,-2.1801849E-1,-3.0717468E-2],"categories":[],"categories_nodes":[],"categories_segments":[],"categories_sizes":[],"default_left":[0,0,0,0,1,0,1,0,1,0,0,0,1,0,0,0,0,0,0,0,1,0,0,0,0,1,0,1,1,0,1,0,0,0,0,0,1,1,1,0,0,0,0,0,0,0,0,0,0,1,0,0,0,0,0,0,0,0,0,0,0,0,0,0,0,1,0,0,0,0,0,0,0,0,1,1,0,1,0,0,0,0,0,1,0,0,0,0,0,0,0,0,0,0,0,0,0,0,0,0,0,1,0,0,1,0,0,0,0,0,0,1,0,0,0,0,0,0,0,0,0,0,0,0,0,0,0,0,0,0,0,0,0,0,0,0,0,0,0,0,0,0,0,0,0,0,0,0,0,0,0,0,0,0,0,0,0,0,0,0,0,0,0,0,0,0,0,0,0,0,0,0,0,0,0,0,0,0,0,0,0,0,0,0,0,0,0,0,0,0,0,0,0,0,0,0,0,0,0,0,0,0,0,0,0,0,0,0,0,0,0,0,0,0,0,0,0,0,0,0,0,0,0,0,0,0,0,0,0,0,0,0,0,0,0,0,0,0,0,0,0,0,0,0,0,0,0,0,0,0,0],"id":1,"left_children":[1,3,5,7,9,11,13,15,17,19,21,23,25,27,29,31,33,35,37,39,41,43,45,47,49,51,53,55,57,59,61,63,65,67,69,71,73,75,77,79,81,83,85,87,89,91,93,95,97,99,101,103,105,107,109,111,113,115,117,119,121,123,125,127,129,131,133,135,137,139,141,143,145,147,149,151,153,155,157,159,161,163,165,167,169,171,173,175,177,179,181,183,185,187,189,191,193,195,197,199,201,203,205,207,209,211,213,215,217,219,221,223,225,227,229,231,233,235,237,239,241,243,-1,245,247,-1,249,-1,-1,-1,-1,-1,-1,-1,-1,-1,-1,-1,-1,-1,-1,-1,-1,-1,-1,-1,-1,-1,-1,-1,-1,-1,-1,-1,-1,-1,-1,-1,-1,-1,-1,-1,-1,-1,-1,-1,-1,-1,-1,-1,-1,-1,-1,-1,-1,-1,-1,-1,-1,-1,-1,-1,-1,-1,-1,-1,-1,-1,-1,-1,-1,-1,-1,-1,-1,-1,-1,-1,-1,-1,-1,-1,-1,-1,-1,-1,-1,-1,-1,-1,-1,-1,-1,-1,-1,-1,-1,-1,-1,-1,-1,-1,-1,-1,-1,-1,-1,-1,-1,-1,-1,-1,-1,-1,-1,-1,-1,-1,-1,-1,-1,-1,-1,-1,-1,-1,-1,-1,-1,-1,-1],"loss_changes":[1.4652906E5,3.941553E4,1.5813359E4,3.5625469E3,7.663625E3,9.977836E3,4.2510938E3,1.2517656E3,8.2084375E2,7.806799E3,2.127877E3,3.2291523E3,4.2868955E3,1.678375E3,1.8465994E3,3.2501758E2,5.0270898E2,4.0686914E2,4.710664E2,1.5219824E3,2.3153572E3,5.902052E2,1.4260117E3,7.8647876E2,1.4767266E3,7.329672E2,7.301904E2,6.736406E2,5.500742E2,1.4467578E2,9.2098193E2,2.3991797E2,2.122627E2,4.8826855E2,2.1828125E2,2.786582E2,2.0138867E2,1.767832E2,3.8087744E2,1.3342432E3,7.329263E2,6.160044E2,7.283302E2,1.2813135E2,1.3236456E2,8.417119E2,8.276699E2,1.7253244E2,2.1887036E2,1.0259968E3,1.0371895E3,1.300469E2,2.2203008E2,4.1770312E2,6.20927E1,3.7999805E2,1.1706246E3,3.7767188E2,1.6676733E2,3.6779785E1,2.5651245E1,2.9855475E2,6.2125244E1,4.09209E1,4.4941895E1,1.13259766E2,3.6892822E1,1.9804053E2,1.6605762E2,1.7411133E2,5.5242188E1,9.0100586E1,9.691504E1,1.36625E2,8.889124E1,5.3546875E1,2.813511E-1,2.1702588E2,1.0448715E1,3.885625E2,6.7347437E2,2.0574316E2,1.5599036E2,1.4602956E2,4.5124402E2,1.7029504E2,3.7246198E2,4.448706E1,8.501807E1,7.5764404E1,1.4537184E2,2.1974846E1,6.7347266E2,3.027705E2,2.9230875E2,4.134833E1,5.8692413E1,2.9812866E1,1.5856699E2,1.8269293E2,2.7344513E2,4.2143945E2,5.367871E2,1.1401911E1,5.2277344E1,6.649982E1,8.930145E1,8.7877075E1,3.1781543E2,2.9048346E1,8.284843E0,1.859754E2,4.2877344E2,4.3642896E2,3.0295715E1,1.3757642E2,4.0034766E2,8.132861E1,1.2553406E2,2.6753784E1,8.1022835E0,6.4625244E0,0E0,1.18331024E2,1.2925089E2,0E0,2.0402374E0,0E0,0E0,0E0,0E0,0E0,0E0,0E0,0E0,0E0,0E0,0E0,0E0,0E0,0E0,0E0,0E0,0E0,0E0,0E0,0E0,0E0,0E0,0E0,0E0,0E0,0E0,0E0,0E0,0E0,0E0,0E0,0E0,0E0,0E0,0E0,0E0,0E0,0E0,0E0,0E0,0E0,0E0,0E0,0E0,0E0,0E0,0E0,0E0,0E0,0E0,0E0,0E0,0E0,0E0,0E0,0E0,0E0,0E0,0E0,0E0,0E0,0E0,0E0,0E0,0E0,0E0,0E0,0E0,0E0,0E0,0E0,0E0,0E0,0E0,0E0,0E0,0E0,0E0,0E0,0E0,0E0,0E0,0E0,0E0,0E0,0E0,0E0,0E0,0E0,0E0,0E0,0E0,0E0,0E0,0E0,0E0,0E0,0E0,0E0,0E0,0E0,0E0,0E0,0E0,0E0,0E0,0E0,0E0,0E0,0E0,0E0,0E0,0E0,0E0,0E0,0E0,0E0,0E0,0E0,0E0,0E0,0E0,0E0,0E0],"parents":[2147483647,0,0,1,1,2,2,3,3,4,4,5,5,6,6,7,7,8,8,9,9,10,10,11,11,12,12,13,13,14,14,15,15,16,16,17,17,18,18,19,19,20,20,21,21,22,22,23,23,24,24,25,25,26,26,27,27,28,28,29,29,30,30,31,31,32,32,33,33,34,34,35,35,36,36,37,37,38,38,39,39,40,40,41,41,42,42,43,43,44,44,45,45,46,46,47,47,48,48,49,49,50,50,51,51,52,52,53,53,54,54,55,55,56,56,57,57,58,58,59,59,60,60,61,61,62,62,63,63,64,64,65,65,66,66,67,67,68,68,69,69,70,70,71,71,72,72,73,73,74,74,75,75,76,76,77,77,78,78,79,79,80,80,81,81,82,82,83,83,84,84,85,85,86,86,87,87,88,88,89,89,90,90,91,91,92,92,93,93,94,94,95,95,96,96,97,97,98,98,99,99,100,100,101,101,102,102,103,103,104,104,105,105,106,106,107,107,108,108,109,109,110,110,111,111,112,112,113,113,114,114,115,115,116,116,117,117,118,118,119,119,120,120,121,121,123,123,124,124,126,126],"right_children":[2,4,6,8,10,12,14,16,18,20,22,24,26,28,30,32,34,36,38,40,42,44,46,48,50,52,54,56,58,60,62,64,66,68,70,72,74,76,78,80,82,84,86,88,90,92,94,96,98,100,102,104,106,108,110,112,114,116,118,120,122,124,126,128,130,132,134,136,138,140,142,144,146,148,150,152,154,156,158,160,162,164,166,168,170,172,174,176,178,180,182,184,186,188,190,192,194,196,198,200,202,204,206,208,210,212,214,216,218,220,222,224,226,228,230,232,234,236,238,240,242,244,-1,246,248,-1,250,-1,-1,-1,-1,-1,-1,-1,-1,-1,-1,-1,-1,-1,-1,-1,-1,-1,-1,-1,-1,-1,-1,-1,-1,-1,-1,-1,-1,-1,-1,-1,-1,-1,-1,-1,-1,-1,-1,-1,-1,-1,-1,-1,-1,-1,-1,-1,-1,-1,-1,-1,-1,-1,-1,-1,-1,-1,-1,-1,-1,-1,-1,-1,-1,-1,-1,-1,-1,-1,-1,-1,-1,-1,-1,-1,-1,-1,-1,-1,-1,-1,-1,-1,-1,-1,-1,-1,-1,-1,-1,-1,-1,-1,-1,-1,-1,-1,-1,-1,-1,-1,-1,-1,-1,-1,-1,-1,-1,-1,-1,-1,-1,-1,-1,-1,-1,-1,-1,-1,-1,-1,-1,-1,-1],"split_conditions":[4.067482E2,4.04519E-4,4.0813644E2,1.3549267E-1,1.9197977E1,1.2834839E0,2.2531824E1,1.7861966E7,8.3666706E-1,4.06463E-4,9.6826E1,4.07505E-4,3.0386E1,4.0882336E2,6E0,3.8680008E-1,4.6036E1,4.0375235E2,1.7325316E7,1.3684585E0,1.2483467E0,4.0519055E2,4.0653653E2,4.06736E-4,1.3549267E-1,1.2074901E7,2.3288404E7,1.25026E2,2.268841E7,1.13876E2,4.3186E1,4.0176324E2,1.8620586E-1,4.691229E2,2.5096452E7,3.6293983E-2,1.20926E2,1.31426E2,1.20126E2,4.0608746E2,1E1,3E0,5.8288074E4,2.3288404E7,4.08313E-4,3.4886E1,4.07682E-4,2.1679688E-1,5.361328E0,1.13226E2,3E0,4.081148E2,4E0,1.1E1,1.19926E2,4.0841458E2,2.7266417E0,2E0,4.10203E-4,4.1099368E2,7.063294E2,1.5304032E9,1.7897342E2,1.6592022E7,3.0300329E0,5.1036E1,4.03976E-4,4.0405386E2,4.0567285E2,4.0456393E2,8.6426E1,3.9888465E-1,4.9136E1,1.8446772E-1,2.178303E1,1.23876E2,1.4006402E-2,1.04626E2,4.2786E1,7E0,1.1821741E1,1.640378E0,6.1471953E0,3.1977513E-1,5E0,7.8826E1,1.5410304E9,1.7160137E0,8.9376E1,1.9258548E-1,3.1349573E1,4.0672552E2,3.4632015E-1,2.9418945E-2,4.08647E-4,5.199398E-2,4.06176E-4,4.0719E-4,4.069276E2,4.0781293E2,1.22276E2,1.4733334E-1,2.5842223E-1,1.1658861E7,1.16826E2,4.0768262E2,1.11226E2,4.0694205E2,1.28126E2,4.424883E-2,4.4536E1,6.515625E1,4.3186E1,8.89114E6,4.0936E1,9.158702E2,4.11127E-4,4.9083022E3,2.1484375E-2,4.109544E2,1.0137246E1,1.1364714E0,-1.0862885E-1,2.1833088E7,4.0886093E2,-5.1895595E-1,1.21626E2,-8.494102E-1,-5.5139685E-1,-6.876046E-1,-4.6791145E-1,-5.3053445E-1,-6.5452754E-1,-3.983827E-1,-9.4897464E-2,-3.879846E-1,-6.045317E-1,-3.2414076E-1,-1.3968338E-1,-5.015157E-1,-3.4468445E-1,-5.585068E-1,-1.4787862E-1,-2.8062692E-1,-4.212586E-1,-3.1389794E-1,-2.3320091E-1,-2.0037289E-1,-2.7306184E-1,6.236667E-2,-3.9418578E-1,-4.3511277E-1,-5.1303595E-1,-3.0099487E-2,-1.3018154E-1,-3.1222737E-1,-5.024182E-1,6.466568E-2,-5.0704014E-2,-1.3362823E-1,-5.7858672E-2,-5.582387E-2,-2.0174113E-1,-2.174214E-1,-3.1208557E-1,-1.3817732E-1,-2.6306346E-2,-1.735965E-2,-9.285747E-2,7.6587126E-2,1.835849E-2,1.2109833E-1,-2.7201256E-1,-9.271353E-2,3.6984067E-2,-2.4185841E-1,-3.7501362E-1,-2.1985567E-1,-1.28486E-1,-4.209717E-3,-1.0231346E-1,7.8273915E-2,-2.2200206E-1,-1.4340878E-1,-2.5093842E-2,-5.284321E-1,-2.5857514E-1,-3.0489942E-1,-2.0306198E-1,-3.1539917E-2,-4.6312147E-1,2.0279153E-1,5.421657E-3,-1.2878783E-1,-5.9717573E-2,6.984094E-2,9.8003305E-2,-2.6866484E-2,4.4599332E-2,4.127882E-2,1.3070063E-1,-1.1485642E-1,-4.3763706E-1,5.3646356E-2,1.2216484E-1,1.4264086E-1,2.0032191E-1,-1.4654052E-1,2.3617554E-2,1.9191705E-1,7.6394655E-2,1.2586176E-2,1.8081465E-1,-1.4904249E-1,-5.85258E-2,-3.5915983E-1,-2.2038777E-1,-4.2985997E-1,-6.702667E-2,-7.652366E-2,1.0897147E-1,-2.9352826E-1,8.830261E-3,1.1275621E-1,-1.4577484E-1,2.2676753E-1,1.6807286E-1,2.353683E-1,7.149757E-2,6.978607E-2,-4.2640018E-1,1.7666236E-1,-9.635895E-2,2.580286E-1,3.142737E-1,2.2766684E-1,1.2494166E-1,1.7956986E-1,5.0380778E-2,1.8990311E-1,3.0814648E-1,4.4970855E-2,1.3368644E-1,2.8863525E-2,3.1624857E-1,9.3404606E-2,-3.2403533E-4,-9.829028E-2,5.03129E-4,-2.1801849E-1,-3.0717468E-2],"split_indices":[30,29,30,9,16,24,16,11,13,29,3,29,2,30,1,6,2,25,11,12,12,30,25,29,9,11,11,3,11,3,2,25,13,7,11,13,3,3,3,25,1,1,15,11,29,2,29,20,20,3,1,25,1,33,3,25,12,1,29,25,7,4,7,11,12,2,29,30,30,30,3,12,2,6,16,3,6,3,2,26,16,13,16,12,1,3,4,6,3,12,16,30,13,18,29,12,29,29,25,30,3,22,22,11,3,30,3,30,3,6,2,20,2,11,2,7,29,7,20,25,28,24,0,11,25,0,3,0,0,0,0,0,0,0,0,0,0,0,0,0,0,0,0,0,0,0,0,0,0,0,0,0,0,0,0,0,0,0,0,0,0,0,0,0,0,0,0,0,0,0,0,0,0,0,0,0,0,0,0,0,0,0,0,0,0,0,0,0,0,0,0,0,0,0,0,0,0,0,0,0,0,0,0,0,0,0,0,0,0,0,0,0,0,0,0,0,0,0,0,0,0,0,0,0,0,0,0,0,0,0,0,0,0,0,0,0,0,0,0,0,0,0,0,0,0,0,0,0,0,0,0],"split_type":[0,0,0,0,0,0,0,0,0,0,0,0,0,0,0,0,0,0,0,0,0,0,0,0,0,0,0,0,0,0,0,0,0,0,0,0,0,0,0,0,0,0,0,0,0,0,0,0,0,0,0,0,0,0,0,0,0,0,0,0,0,0,0,0,0,0,0,0,0,0,0,0,0,0,0,0,0,0,0,0,0,0,0,0,0,0,0,0,0,0,0,0,0,0,0,0,0,0,0,0,0,0,0,0,0,0,0,0,0,0,0,0,0,0,0,0,0,0,0,0,0,0,0,0,0,0,0,0,0,0,0,0,0,0,0,0,0,0,0,0,0,0,0,0,0,0,0,0,0,0,0,0,0,0,0,0,0,0,0,0,0,0,0,0,0,0,0,0,0,0,0,0,0,0,0,0,0,0,0,0,0,0,0,0,0,0,0,0,0,0,0,0,0,0,0,0,0,0,0,0,0,0,0,0,0,0,0,0,0,0,0,0,0,0,0,0,0,0,0,0,0,0,0,0,0,0,0,0,0,0,0,0,0,0,0,0,0,0,0,0,0,0,0,0,0,0,0,0,0,0,0],"sum_hessian":[7.2449E4,3.5911E4,3.6538E4,6.458E3,2.9453E4,1.9231E4,1.7307E4,2.206E3,4.252E3,2.6037E4,3.416E3,1.7579E4,1.652E3,1.5339E4,1.968E3,6.99E2,1.507E3,3.154E3,1.098E3,1.6809E4,9.228E3,1.209E3,2.207E3,5.106E3,1.2473E4,8.61E2,7.91E2,6.589E3,8.75E3,6.38E2,1.33E3,1.65E2,5.34E2,7.05E2,8.02E2,1.458E3,1.696E3,5.62E2,5.36E2,1.4784E4,2.025E3,7.209E3,2.019E3,6.01E2,6.08E2,6.12E2,1.595E3,9.52E2,4.154E3,1.287E3,1.1186E4,2.45E2,6.16E2,7.37E2,5.4E1,5.842E3,7.47E2,7.74E3,1.01E3,5.15E2,1.23E2,1.288E3,4.2E1,9.7E1,6.8E1,4.54E2,8E1,1.88E2,5.17E2,7.71E2,3.1E1,3.92E2,1.066E3,1.664E3,3.2E1,5.45E2,1.7E1,5.05E2,3.1E1,9.471E3,5.313E3,1.402E3,6.23E2,1.174E3,6.035E3,2.54E2,1.765E3,1.74E2,4.27E2,4.84E2,1.24E2,7.5E1,5.37E2,1.372E3,2.23E2,3.15E2,6.37E2,1.565E3,2.589E3,1.034E3,2.53E2,4.043E3,7.143E3,1.9E1,2.26E2,9.9E1,5.17E2,2.8E2,4.57E2,4.8E1,6E0,2.49E2,5.593E3,7.06E2,4.1E1,3.32E2,7.408E3,7E2,3.1E2,4.7E2,4.5E1,1.22E2,1E0,6.62E2,6.26E2,3.2E1,1E1,8.4E1,1.3E1,2.2E1,4.6E1,3.21E2,1.33E2,7.5E1,5E0,9.8E1,9E1,4.6E2,5.7E1,6.81E2,9E1,3E0,2.8E1,6.3E1,3.29E2,8.67E2,1.99E2,3.4E2,1.324E3,2.8E1,4E0,3.58E2,1.87E2,1E0,1.6E1,4.32E2,7.3E1,1.9E1,1.2E1,8.735E3,7.36E2,4.976E3,3.37E2,1.103E3,2.99E2,4.5E2,1.73E2,7.97E2,3.77E2,1.981E3,4.054E3,1.1E1,2.43E2,1.506E3,2.59E2,1.38E2,3.6E1,1.84E2,2.43E2,9.9E1,3.85E2,1.06E2,1.8E1,5.2E1,2.3E1,4.14E2,1.23E2,9.33E2,4.39E2,2.07E2,1.6E1,1E1,3.05E2,1.68E2,4.69E2,8.9E2,6.75E2,3.6E2,2.229E3,6.93E2,3.41E2,2.24E2,2.9E1,1.35E3,2.693E3,4.657E3,2.486E3,1.4E1,5E0,1.73E2,5.3E1,6.2E1,3.7E1,1.57E2,3.6E2,6.2E1,2.18E2,4.31E2,2.6E1,1E1,3.8E1,5E0,1E0,2.18E2,3.1E1,3.687E3,1.906E3,2.54E2,4.52E2,1E0,4E1,3.13E2,1.9E1,5.748E3,1.66E3,6.07E2,9.3E1,1.79E2,1.31E2,4.48E2,2.2E1,1.9E1,2.6E1,1E0,1.21E2,4.74E2,1.88E2,1.89E2,4.37E2,9E0,1E0],"tree_param":{"num_deleted":"0","num_feature":"45","num_nodes":"251","size_leaf_vector":"1"}},{"base_weights":[4.473324E-3,-1.6243694E0,9.458137E-1,-3.5755255E0,-1.162892E0,2.2313587E-2,1.4460537E0,-4.210327E0,-3.0458076E0,-9.632715E-1,-2.2178557E0,3.559781E-1,-2.1338842E0,1.1137911E0,2.0473828E0,-5.024797E0,-3.751029E0,-2.74637E0,-3.6696618E0,-1.0959878E0,-2.9685122E-1,-1.9858556E0,-2.8051665E0,4.3804058E-1,-6.5526754E-1,-1.4536593E0,-3.1056385E0,1.4073056E0,7.054589E-2,2.2839344E0,1.4046926E0,-4.736438E0,-7.562964E0,-1.8193613E0,-3.891086E0,-3.6391323E0,-2.6420155E0,-4.1384377E0,-3.044029E0,-1.002206E0,-1.8382684E0,3.9840916E-1,-5.094398E-1,-7.6507795E-1,-2.133226E0,-2.467965E0,-4.1006346E0,2.447626E-1,9.1378003E-1,-1.778036E-1,-2.0085948E0,-1.9197052E0,-6.4764905E-1,-4.7440567E0,-2.4873931E0,9.105468E-1,1.7333847E0,3.3838257E-1,-3.9615302E0,9.0518934E-1,2.3386896E0,1.745079E0,6.9976285E-2,-4.2844067E0,-5.2720838E0,-7.799357E-1,-3.8822195E-1,-3.0656738E0,-9.31419E-1,-1.5492786E0,-4.0000715E0,-3.0435975E0,-4.918433E0,-2.8529868E-1,-2.678756E0,-4.220078E0,-1.162978E0,-3.270507E0,1.0519635E-1,-1.2749559E0,-8.102758E-1,-2.1443691E0,-1.073329E0,8.5636806E-1,-4.6846572E-1,-6.07231E-1,3.569769E-1,2.5489001E0,-9.454361E-1,-2.0822344E0,-3.5054717E0,-2.2725725E0,-4.0995383E0,-2.3974283E0,-4.8063307E0,-1.7380017E-1,2.8520897E-1,7.19398E-1,1.3476588E0,-5.8095235E-1,8.8741523E-1,-2.3308573E0,3.347545E-1,-1.0841886E0,-2.5368032E0,-5.266042E-1,-4.8530227E-1,-2.067507E0,-5.0690536E0,-2.144262E0,-4.1863713E0,3.635802E-1,1.1810513E0,8.683836E-1,1.8362309E0,-2.0340047E0,5.056858E-1,-4.436712E0,-5.1521254E-1,-6.582328E-1,1.3880744E0,2.3977723E0,1.3423575E0,1.5267289E0,2.3175979E0,-2.2176743E0,2.2040671E-1,-3.8941324E-1,-4.696741E-1,-4.2556903E-1,-5.5758667E-1,-1.7826971E-1,-3.4634173E-1,-1.0852367E-1,1.5317917E-1,-3.1165233E-1,-1.20848715E-2,-4.8657337E-1,-3.7083516E-1,-2.2264138E-1,-3.5609E-1,-3.60851E-1,-5.437459E-1,-2.577301E-1,-9.801777E-3,-2.7015445E-1,6.75967E-2,-3.942998E-1,-4.75202E-1,-8.672569E-2,-1.5809692E-1,-2.560186E-1,-4.1920838E-1,5.1059496E-2,-5.3089213E-2,-1.20997705E-1,-1.7764209E-1,-4.5170464E-2,-9.565007E-2,-1.9687785E-1,-2.8730604E-1,-1.3175014E-1,-4.6220813E-2,1.2867798E-1,5.8850504E-2,4.1059513E-2,-9.241965E-2,-1.2807103E-1,-5.4545928E-2,1.1346908E-2,1.1665683E-1,2.801584E-1,-3.679962E-2,-4.3530734E-5,-1.1899119E-1,-1.603314E-1,-2.2430828E-1,-4.3957812E-1,-1.790438E-1,-1.9013546E-1,-2.9168257E-1,-4.88794E-1,-1.4505173E-1,1.625497E-2,-2.6848805E-1,-4.9347636E-1,-3.7738647E-2,2.1440737E-2,-5.0413232E-2,1.5291941E-2,4.184424E-2,-3.818779E-2,7.95616E-2,1.2221463E-1,2.6608485E-1,3.8479576E-1,-6.4340815E-2,1.1397006E-1,-5.830736E-2,-2.4864142E-1,-1.4059918E-1,1.3097118E-1,-8.439293E-2,-8.876972E-2,-2.9783794E-1,-1.5951253E-1,-2.906401E-1,-2.05153E-2,-1.6576087E-1,-2.1520102E-1,1.07040405E-2,-1.4440875E-1,-5.165748E-1,-2.257347E-1,1.8685563E-2,-1.8944006E-1,-4.4800684E-1,-1.0200627E-1,5.3999048E-2,1.24828495E-1,-5.0795075E-2,-4.205809E-4,1.0446476E-1,6.813091E-2,1.9043183E-1,-2.7830562E-1,-1.3142751E-1,1.4248416E-1,1.0083149E-2,-5.066005E-1,-3.2962084E-1,-1.3679856E-1,3.722854E-3,-1.04627214E-1,4.5883663E-2,1.0377033E-1,1.7544934E-1,2.036844E-1,2.633364E-1,2.089508E-1,8.9746006E-2,1.6304635E-1,7.611169E-2,2.1616812E-1,3.6324215E-1,-2.4199067E-1,8.135173E-2,8.417747E-3,1.229304E-1],"categories":[],"categories_nodes":[],"categories_segments":[],"categories_sizes":[],"default_left":[0,0,0,0,1,1,0,0,1,0,0,1,0,0,1,0,0,0,0,1,0,0,0,0,1,0,0,1,1,0,0,0,0,0,0,0,1,0,1,0,0,0,0,0,0,0,0,1,1,0,0,0,1,0,0,0,0,0,0,0,1,0,0,0,0,0,0,0,0,0,1,0,0,0,1,0,0,1,0,0,0,0,0,0,0,1,0,0,0,0,0,0,0,0,0,0,0,1,0,0,0,0,0,0,0,0,0,0,0,0,0,0,0,0,1,0,1,0,0,0,0,0,1,0,0,0,0,0,0,0,0,0,0,0,0,0,0,0,0,0,0,0,0,0,0,0,0,0,0,0,0,0,0,0,0,0,0,0,0,0,0,0,0,0,0,0,0,0,0,0,0,0,0,0,0,0,0,0,0,0,0,0,0,0,0,0,0,0,0,0,0,0,0,0,0,0,0,0,0,0,0,0,0,0,0,0,0,0,0,0,0,0,0,0,0,0,0,0,0,0,0,0,0,0,0,0,0,0,0,0,0,0,0,0,0,0,0,0,0,0,0,0,0,0,0,0,0,0,0],"id":2,"left_children":[1,3,5,7,9,11,13,15,17,19,21,23,25,27,29,31,33,35,37,39,41,43,45,47,49,51,53,55,57,59,61,63,65,67,69,71,73,75,77,79,81,83,85,87,89,91,93,95,97,99,101,103,105,107,109,111,113,115,117,119,121,123,125,127,129,-1,-1,131,133,135,137,139,141,143,145,147,149,151,153,155,157,159,161,163,165,167,169,171,173,175,177,179,181,183,185,187,189,191,193,195,197,199,201,203,205,207,-1,209,211,213,215,217,219,221,223,225,227,229,231,233,235,237,239,241,243,245,247,-1,-1,-1,-1,-1,-1,-1,-1,-1,-1,-1,-1,-1,-1,-1,-1,-1,-1,-1,-1,-1,-1,-1,-1,-1,-1,-1,-1,-1,-1,-1,-1,-1,-1,-1,-1,-1,-1,-1,-1,-1,-1,-1,-1,-1,-1,-1,-1,-1,-1,-1,-1,-1,-1,-1,-1,-1,-1,-1,-1,-1,-1,-1,-1,-1,-1,-1,-1,-1,-1,-1,-1,-1,-1,-1,-1,-1,-1,-1,-1,-1,-1,-1,-1,-1,-1,-1,-1,-1,-1,-1,-1,-1,-1,-1,-1,-1,-1,-1,-1,-1,-1,-1,-1,-1,-1,-1,-1,-1,-1,-1,-1,-1,-1,-1,-1,-1,-1,-1,-1,-1,-1],"loss_changes":[1.11283516E5,2.3930656E4,2.1248824E4,1.6967461E3,4.5253867E3,1.1628456E4,5.9587227E3,8.4528906E2,5.0830664E2,1.5987559E3,4.6042578E2,1.1618329E3,1.4272373E3,5.8849043E3,1.6108906E3,5.716582E2,3.935957E2,1.654414E2,2.5047559E2,1.0477031E3,4.4420746E2,4.400371E2,4.1186133E2,1.1902527E3,6.787621E2,4.7807056E2,8.907334E2,2.428E3,4.5597583E3,5.836328E2,1.2987769E3,1.5852539E2,4.1939453E1,1.10023224E2,3.4601172E2,1.3283301E2,1.452207E2,1.1897949E2,2.770774E2,6.9981445E2,3.9340918E2,2.798843E2,1.9517566E2,1.6139885E2,1.459414E2,2.3583887E2,2.2646265E2,1.55935E2,3.1445557E2,3.3462112E2,2.0769788E2,4.1385107E2,2.3618364E2,2.0089844E2,3.693723E2,8.7932227E2,8.038672E2,1.572388E3,4.2841016E2,2.2588971E2,4.3604297E2,2.812334E2,2.0077376E2,4.7850098E1,8.0631836E1,0E0,0E0,1.5258179E1,2.477436E1,1.4066144E2,3.1478906E2,4.9140625E1,2.1171753E1,1.1337082E1,1.2873047E2,5.436914E1,4.830265E-1,2.2623804E2,7.233545E0,1.7797852E2,4.1173584E2,1.4865283E2,7.176221E1,5.239203E1,9.8129524E1,8.533429E1,4.5998817E1,1.1349716E1,5.844998E1,1.5925195E2,1.0970172E2,1.5923413E2,1.6207776E2,4.4588715E1,7.720386E1,1.0423688E2,1.479364E2,2.1728088E2,1.8728174E2,1.5876105E2,8.0054855E1,3.1176514E1,4.0176952E1,1.2576239E2,1.5685547E2,1.658081E2,0E0,5.375534E0,6.825098E1,1.433003E2,6.421265E1,4.8116174E2,4.523672E2,1.4827338E2,6.349453E2,1.3705115E2,1.3763436E3,1.4909229E2,1.5597456E1,3.125622E1,2.7450592E1,5.935156E2,1.3773499E2,1.2996167E2,1.2068457E2,2.403682E1,7.507692E1,0E0,0E0,0E0,0E0,0E0,0E0,0E0,0E0,0E0,0E0,0E0,0E0,0E0,0E0,0E0,0E0,0E0,0E0,0E0,0E0,0E0,0E0,0E0,0E0,0E0,0E0,0E0,0E0,0E0,0E0,0E0,0E0,0E0,0E0,0E0,0E0,0E0,0E0,0E0,0E0,0E0,0E0,0E0,0E0,0E0,0E0,0E0,0E0,0E0,0E0,0E0,0E0,0E0,0E0,0E0,0E0,0E0,0E0,0E0,0E0,0E0,0E0,0E0,0E0,0E0,0E0,0E0,0E0,0E0,0E0,0E0,0E0,0E0,0E0,0E0,0E0,0E0,0E0,0E0,0E0,0E0,0E0,0E0,0E0,0E0,0E0,0E0,0E0,0E0,0E0,0E0,0E0,0E0,0E0,0E0,0E0,0E0,0E0,0E0,0E0,0E0,0E0,0E0,0E0,0E0,0E0,0E0,0E0,0E0,0E0,0E0,0E0,0E0,0E0,0E0,0E0,0E0,0E0,0E0,0E0,0E0,0E0],"parents":[2147483647,0,0,1,1,2,2,3,3,4,4,5,5,6,6,7,7,8,8,9,9,10,10,11,11,12,12,13,13,14,14,15,15,16,16,17,17,18,18,19,19,20,20,21,21,22,22,23,23,24,24,25,25,26,26,27,27,28,28,29,29,30,30,31,31,32,32,33,33,34,34,35,35,36,36,37,37,38,38,39,39,40,40,41,41,42,42,43,43,44,44,45,45,46,46,47,47,48,48,49,49,50,50,51,51,52,52,53,53,54,54,55,55,56,56,57,57,58,58,59,59,60,60,61,61,62,62,63,63,64,64,67,67,68,68,69,69,70,70,71,71,72,72,73,73,74,74,75,75,76,76,77,77,78,78,79,79,80,80,81,81,82,82,83,83,84,84,85,85,86,86,87,87,88,88,89,89,90,90,91,91,92,92,93,93,94,94,95,95,96,96,97,97,98,98,99,99,100,100,101,101,102,102,103,103,104,104,105,105,107,107,108,108,109,109,110,110,111,111,112,112,113,113,114,114,115,115,116,116,117,117,118,118,119,119,120,120,121,121,122,122,123,123,124,124,125,125,126,126],"right_children":[2,4,6,8,10,12,14,16,18,20,22,24,26,28,30,32,34,36,38,40,42,44,46,48,50,52,54,56,58,60,62,64,66,68,70,72,74,76,78,80,82,84,86,88,90,92,94,96,98,100,102,104,106,108,110,112,114,116,118,120,122,124,126,128,130,-1,-1,132,134,136,138,140,142,144,146,148,150,152,154,156,158,160,162,164,166,168,170,172,174,176,178,180,182,184,186,188,190,192,194,196,198,200,202,204,206,208,-1,210,212,214,216,218,220,222,224,226,228,230,232,234,236,238,240,242,244,246,248,-1,-1,-1,-1,-1,-1,-1,-1,-1,-1,-1,-1,-1,-1,-1,-1,-1,-1,-1,-1,-1,-1,-1,-1,-1,-1,-1,-1,-1,-1,-1,-1,-1,-1,-1,-1,-1,-1,-1,-1,-1,-1,-1,-1,-1,-1,-1,-1,-1,-1,-1,-1,-1,-1,-1,-1,-1,-1,-1,-1,-1,-1,-1,-1,-1,-1,-1,-1,-1,-1,-1,-1,-1,-1,-1,-1,-1,-1,-1,-1,-1,-1,-1,-1,-1,-1,-1,-1,-1,-1,-1,-1,-1,-1,-1,-1,-1,-1,-1,-1,-1,-1,-1,-1,-1,-1,-1,-1,-1,-1,-1,-1,-1,-1,-1,-1,-1,-1,-1,-1,-1,-1],"split_conditions":[4.06596E-4,4.043752E2,4.0818713E2,1.2920239E0,1.5443491E1,1.9696024E1,4.0997614E2,4.0176324E2,8.776121E-1,1.1E1,1.493359E0,1.8732158E0,2.7E1,7.469692E-1,2.1554404E7,9.884204E4,4.3436E1,8.3576E1,1.739392E7,1.4828472E0,1.4085116E3,6.9230347E2,4.3536E1,4.07505E-4,3.2836E1,1.11676E2,4.0663477E2,1.591875E-1,1.22276E2,4.08892E-4,6E0,1.6227026E-1,4.7786E1,5.8451715E2,8.3376E1,8.2476E1,1.3497808E-2,1.31426E2,1.20126E2,4.05477E-4,1E1,4.0689352E2,1.2E1,6.559874E-2,1.13226E2,5.800643E0,9.158702E2,2.8586E1,1.6002476E7,4.0789685E2,4.0797403E2,8E0,3.5636E1,-1.7543182E0,4.0986E1,3E0,4.07889E-4,4.07373E-4,1.29176E2,2E0,2.3917933E1,7.36052E-1,4.08985E-4,3.3505917E-1,-6.938267E-2,-7.799357E-1,-3.8822195E-1,1.19626E2,2.3570032E0,4.0419162E2,8.6426E1,1.5188232E1,4.4036E1,2.9532779E-2,1.31426E2,1.23876E2,1.689972E-1,9.3926E1,4.2686E1,1.9772454E7,-3.6575928E-1,4.1386E1,1.01538464E-1,1.2743771E-1,8.228373E-3,2.8386E1,9.8426E1,8.885664E0,1.6686258E1,2.0178397E-1,2.9418945E-2,4.05875E-4,-1.9899845E-1,8.9845195E4,8.002291E-1,1.3897544E7,4.06965E-4,3.0086E1,8.3860805E4,2.1527398E-1,4.07889E-4,3.8436E1,-1.8467903E-1,1.06876E2,2.4036E1,2.8658777E1,-4.8530227E-1,9E0,1.12326E2,1.17776E2,-8.941822E-1,3.0686E1,5.46661E-1,9.6426E1,1.5174432E9,1.4259553E0,1.3993546E7,3.2578125E0,1.10463135E-1,1.03125E0,2.4142593E-1,4.0052858E-1,2.5336E1,4.10351E-4,4.11488E-4,9.346466E-1,4.11225E-4,-3.8941324E-1,-4.696741E-1,-4.2556903E-1,-5.5758667E-1,-1.7826971E-1,-3.4634173E-1,-1.0852367E-1,1.5317917E-1,-3.1165233E-1,-1.20848715E-2,-4.8657337E-1,-3.7083516E-1,-2.2264138E-1,-3.5609E-1,-3.60851E-1,-5.437459E-1,-2.577301E-1,-9.801777E-3,-2.7015445E-1,6.75967E-2,-3.942998E-1,-4.75202E-1,-8.672569E-2,-1.5809692E-1,-2.560186E-1,-4.1920838E-1,5.1059496E-2,-5.3089213E-2,-1.20997705E-1,-1.7764209E-1,-4.5170464E-2,-9.565007E-2,-1.9687785E-1,-2.8730604E-1,-1.3175014E-1,-4.6220813E-2,1.2867798E-1,5.8850504E-2,4.1059513E-2,-9.241965E-2,-1.2807103E-1,-5.4545928E-2,1.1346908E-2,1.1665683E-1,2.801584E-1,-3.679962E-2,-4.3530734E-5,-1.1899119E-1,-1.603314E-1,-2.2430828E-1,-4.3957812E-1,-1.790438E-1,-1.9013546E-1,-2.9168257E-1,-4.88794E-1,-1.4505173E-1,1.625497E-2,-2.6848805E-1,-4.9347636E-1,-3.7738647E-2,2.1440737E-2,-5.0413232E-2,1.5291941E-2,4.184424E-2,-3.818779E-2,7.95616E-2,1.2221463E-1,2.6608485E-1,3.8479576E-1,-6.4340815E-2,1.1397006E-1,-5.830736E-2,-2.4864142E-1,-1.4059918E-1,1.3097118E-1,-8.439293E-2,-8.876972E-2,-2.9783794E-1,-1.5951253E-1,-2.906401E-1,-2.05153E-2,-1.6576087E-1,-2.1520102E-1,1.07040405E-2,-1.4440875E-1,-5.165748E-1,-2.257347E-1,1.8685563E-2,-1.8944006E-1,-4.4800684E-1,-1.0200627E-1,5.3999048E-2,1.24828495E-1,-5.0795075E-2,-4.205809E-4,1.0446476E-1,6.813091E-2,1.9043183E-1,-2.7830562E-1,-1.3142751E-1,1.4248416E-1,1.0083149E-2,-5.066005E-1,-3.2962084E-1,-1.3679856E-1,3.722854E-3,-1.04627214E-1,4.5883663E-2,1.0377033E-1,1.7544934E-1,2.036844E-1,2.633364E-1,2.089508E-1,8.9746006E-2,1.6304635E-1,7.611169E-2,2.1616812E-1,3.6324215E-1,-2.4199067E-1,8.135173E-2,8.417747E-3,1.229304E-1],"split_indices":[29,25,25,9,16,16,25,25,13,1,24,12,42,24,11,15,2,3,11,12,7,7,2,29,2,3,25,22,3,29,1,22,2,7,3,3,12,3,3,29,1,25,1,12,3,12,7,2,11,25,25,1,2,13,2,1,29,29,3,1,16,24,29,14,14,0,0,3,14,25,3,9,2,6,3,3,8,3,2,11,16,2,23,28,12,2,3,8,16,8,18,29,14,15,13,11,29,2,15,24,29,2,13,3,2,16,0,1,3,3,13,2,24,3,4,6,11,18,6,20,22,24,2,29,29,13,29,0,0,0,0,0,0,0,0,0,0,0,0,0,0,0,0,0,0,0,0,0,0,0,0,0,0,0,0,0,0,0,0,0,0,0,0,0,0,0,0,0,0,0,0,0,0,0,0,0,0,0,0,0,0,0,0,0,0,0,0,0,0,0,0,0,0,0,0,0,0,0,0,0,0,0,0,0,0,0,0,0,0,0,0,0,0,0,0,0,0,0,0,0,0,0,0,0,0,0,0,0,0,0,0,0,0,0,0,0,0,0,0,0,0,0,0,0,0,0,0,0,0],"split_type":[0,0,0,0,0,0,0,0,0,0,0,0,0,0,0,0,0,0,0,0,0,0,0,0,0,0,0,0,0,0,0,0,0,0,0,0,0,0,0,0,0,0,0,0,0,0,0,0,0,0,0,0,0,0,0,0,0,0,0,0,0,0,0,0,0,0,0,0,0,0,0,0,0,0,0,0,0,0,0,0,0,0,0,0,0,0,0,0,0,0,0,0,0,0,0,0,0,0,0,0,0,0,0,0,0,0,0,0,0,0,0,0,0,0,0,0,0,0,0,0,0,0,0,0,0,0,0,0,0,0,0,0,0,0,0,0,0,0,0,0,0,0,0,0,0,0,0,0,0,0,0,0,0,0,0,0,0,0,0,0,0,0,0,0,0,0,0,0,0,0,0,0,0,0,0,0,0,0,0,0,0,0,0,0,0,0,0,0,0,0,0,0,0,0,0,0,0,0,0,0,0,0,0,0,0,0,0,0,0,0,0,0,0,0,0,0,0,0,0,0,0,0,0,0,0,0,0,0,0,0,0,0,0,0,0,0,0,0,0,0,0,0,0,0,0,0,0,0,0],"sum_hessian":[7.2576E4,2.6581E4,4.5995E4,5.083E3,2.1498E4,1.6161E4,2.9834E4,2.309E3,2.774E3,1.8079E4,3.419E3,1.3996E4,2.165E3,1.9218E4,1.0616E4,8.29E2,1.48E3,1.878E3,8.96E2,1.5076E4,3.003E3,2.454E3,9.65E2,1.2946E4,1.05E3,1.275E3,8.9E2,1.4998E4,4.22E3,7.758E3,2.858E3,7.47E2,8.2E1,1.01E2,1.379E3,1.93E2,1.685E3,5.09E2,3.87E2,1.3387E4,1.689E3,7.03E2,2.3E3,2.65E2,2.189E3,7.68E2,1.97E2,9.207E3,3.739E3,7.77E2,2.73E2,8.07E2,4.68E2,2.42E2,6.48E2,5.945E3,9.053E3,3.958E3,2.62E2,2.97E2,7.461E3,2.277E3,5.81E2,4.1E2,3.37E2,7.6E1,6E0,4.1E1,6E1,6.2E1,1.317E3,1.34E2,5.9E1,2.6E1,1.659E3,4.95E2,1.4E1,3.61E2,2.6E1,5.527E3,7.86E3,1.205E3,4.84E2,4.6E2,2.43E2,2.067E3,2.33E2,1.3E1,2.52E2,2.113E3,7.6E1,6.88E2,8E1,5.9E1,1.38E2,8.11E2,8.396E3,2.584E3,1.155E3,5.64E2,2.13E2,2.4E2,3.3E1,3.44E2,4.63E2,4.56E2,1.2E1,2.7E1,2.15E2,5.41E2,1.07E2,1.968E3,3.977E3,9.63E2,8.09E3,2.6E2,3.698E3,2.3E2,3.2E1,7E1,2.27E2,7.042E3,4.19E2,1.651E3,6.26E2,3.5E1,5.46E2,2.16E2,1.94E2,8.1E1,2.56E2,1.1E1,3E1,5.7E1,3E0,2.9E1,3.3E1,3.28E2,9.89E2,5.4E1,8E1,1.9E1,4E1,1E0,2.5E1,1.648E3,1.1E1,3.31E2,1.64E2,1E1,4E0,2.06E2,1.55E2,1.6E1,1E1,4.896E3,6.31E2,2.278E3,5.582E3,9.74E2,2.31E2,3.45E2,1.39E2,1.75E2,2.85E2,8.3E1,1.6E2,1.72E2,1.895E3,1.8E2,5.3E1,1.2E1,1E0,5.2E1,2E2,5.34E2,1.579E3,4.9E1,2.7E1,4.39E2,2.49E2,6.1E1,1.9E1,6E0,5.3E1,1.34E2,4E0,3.73E2,4.38E2,4.214E3,4.182E3,1.67E2,2.417E3,1.056E3,9.9E1,7E0,5.57E2,1.82E2,3.1E1,2.04E2,3.6E1,1.8E1,1.5E1,3.13E2,3.1E1,1.32E2,3.31E2,3.56E2,1E2,2.6E1,1E0,6E0,2.09E2,5.16E2,2.5E1,1.3E1,9.4E1,2.22E2,1.746E3,3.825E3,1.52E2,1.62E2,8.01E2,4.51E2,7.639E3,1.26E2,1.34E2,1.13E3,2.568E3,1.46E2,8.4E1,1.2E1,2E1,5.2E1,1.8E1,1.18E2,1.09E2,2.785E3,4.257E3,1.55E2,2.64E2,1.453E3,1.98E2,5.62E2,6.4E1,3.3E1,2E0,4.82E2,6.4E1],"tree_param":{"num_deleted":"0","num_feature":"45","num_nodes":"249","size_leaf_vector":"1"}},{"base_weights":[-1.1225872E-3,-1.1909229E0,1.1136647E0,-2.9722831E0,-7.895331E-1,6.272476E-1,1.7577468E0,-3.8027284E0,-2.5441577E0,-6.43131E-1,-1.9809502E0,8.13453E-1,-1.2378275E0,1.8921174E0,3.9816505E-1,-3.2312722E0,-4.495392E0,-2.3015213E0,-3.1128936E0,-9.9045074E-1,-1.1122833E-1,-1.3697464E0,-2.6882253E0,2.8729877E-1,1.0384058E0,1.4580439E-1,-2.4701192E0,1.5552741E0,2.1162982E0,1.1230739E0,-1.046562E-2,-4.09725E0,-2.6990302E0,-4.7690854E0,-2.9955082E0,-2.8567016E0,-2.0902798E0,-3.5630932E0,-2.606577E0,-6.791516E-1,-1.2737519E0,-7.1134585E-1,4.5396876E-2,-1.6281667E0,-2.578073E-1,-1.6650752E0,-3.453577E0,-1.5619753E-1,4.708302E-1,2.6021284E-1,1.1418399E0,1.2978382E0,-2.6061022E-1,-1.9058338E0,-3.045157E0,4.4163316E-1,1.6042622E0,2.199705E0,1.5871958E0,6.376517E-1,1.6864183E0,-1.2813638E0,2.1155263E-1,-3.470609E0,-5.609076E0,-2.446589E0,-4.931648E0,-4.5886393E0,-6.344339E0,-5.891064E-1,-2.8187518E0,-2.7644455E0,-4.7890386E-1,-1.8822923E0,-2.6452491E0,-2.4735785E0,-3.7524724E0,-2.7529097E0,1.7286141E-1,-9.852459E-1,-1.20621435E-1,-1.1217326E0,-1.777305E0,1.7806293E-2,-1.1572034E0,1.4331932E-1,-1.1355164E0,-2.2862976E0,-1.3151112E0,1.1531832E0,-6.040362E-1,-2.1142185E0,-4.7769892E-1,-3.7207987E0,-2.0292175E0,3.3336863E-1,-3.249433E-1,7.0945203E-1,3.3018985E-1,6.016359E-1,-1.2889493E0,9.760622E-1,1.4819804E0,1.0468516E0,2.4116879E0,1.9611661E-1,-5.674644E-1,-2.0078723E0,1.0619648E-1,-1.9302528E0,-3.547245E0,2.0921727E-1,1.0296447E0,1.0843775E0,1.7270842E0,2.1660173E0,3.064673E0,1.8557824E0,1.2850785E0,1.1504714E0,3.667852E-1,1.2709134E0,2.108759E0,-5.8950955E-1,-3.3005493E0,9.789718E-1,-3.3095043E-2,-3.63207E-1,-2.3852499E-1,-4.6578884E-1,-5.9305084E-1,-3.6865115E-1,-2.1603401E-1,-1.3041992E-1,-5.17212E-1,-4.4354138E-1,-6.086709E-1,-6.594172E-1,-1.1281067E-1,-3.2136804E-1,-1.8433893E-1,-3.7769815E-1,-2.6344672E-1,-1.9520375E-1,-4.576408E-2,-2.6713482E-1,9.321412E-2,-2.831465E-1,-1.1924692E-1,-1.5036011E-2,-3.7971506E-1,-2.5191447E-1,-4.1359445E-1,6.0891725E-2,-4.77748E-2,-1.11038685E-1,-6.38913E-2,-7.199062E-2,3.2076568E-3,-1.0162135E-1,-1.8912531E-1,-1.1692699E-1,-1.9196934E-1,3.602219E-2,-5.146522E-2,-2.7555177E-2,-1.3108413E-1,3.3869848E-3,5.6896597E-2,-1.4572853E-1,2.501121E-2,-2.517602E-1,-1.3766238E-1,-2.0628296E-1,-1.0969742E-1,4.185382E-2,3.1164265E-1,-1.00449346E-1,9.8630585E-2,-4.9986314E-2,-2.3750551E-1,-3.5315864E-3,-2.2722149E-1,-2.8590387E-1,-4.4767243E-1,-2.7461872E-1,-1.281961E-1,-1.765244E-2,7.5830705E-2,-8.822115E-2,-1.6254906E-2,-1.0242809E-1,7.21604E-2,-1.8005816E-2,3.940215E-2,-5.532376E-2,7.452288E-2,-8.5998096E-2,-4.005696E-1,6.606729E-2,1.164939E-1,1.6990617E-1,1.1261326E-1,1.3057518E-1,-1.813965E-2,3.1285402E-1,1.5852134E-1,-1.4338176E-2,1.3980673E-1,-7.8001395E-2,3.4531116E-2,-1.7667484E-1,-2.9402325E-1,-1.626821E-1,5.9628733E-2,-9.9460175E-3,-2.629865E-1,-1.8596184E-1,-4.122203E-1,3.3928763E-2,-2.9914156E-2,1.697493E-1,7.4755445E-2,1.1442419E-1,-3.529944E-1,1.8933783E-1,1.416593E-1,1.913179E-1,2.308408E-1,3.95172E-1,2.5161323E-1,2.2651012E-1,1.5983565E-1,1.769857E-1,7.657846E-2,1.5709627E-1,7.563741E-2,2.7568895E-2,1.557859E-1,6.2456477E-2,1.4041989E-1,2.900254E-1,1.8758214E-1,-1.8463731E-1,-2.6827568E-2,-4.1442427E-1,-2.0396481E-1,2.020204E-1,6.628016E-2,5.395359E-3,-1.8133011E-1],"categories":[],"categories_nodes":[],"categories_segments":[],"categories_sizes":[],"default_left":[0,0,0,0,1,0,1,0,1,0,1,0,1,0,1,0,0,0,0,0,0,0,0,0,0,1,0,0,1,0,0,0,0,0,0,1,0,0,1,0,0,0,1,0,0,0,0,0,0,0,1,0,0,0,0,0,0,0,0,0,0,0,0,1,0,0,0,0,0,0,0,0,0,0,1,0,1,1,0,0,0,0,0,0,0,1,0,0,0,0,1,0,0,0,0,0,0,0,0,0,1,0,0,1,1,0,0,0,0,0,0,0,0,0,1,1,1,0,0,0,0,0,0,0,0,1,0,0,0,0,0,0,0,0,0,0,0,0,0,0,0,0,0,0,0,0,0,0,0,0,0,0,0,0,0,0,0,0,0,0,0,0,0,0,0,0,0,0,0,0,0,0,0,0,0,0,0,0,0,0,0,0,0,0,0,0,0,0,0,0,0,0,0,0,0,0,0,0,0,0,0,0,0,0,0,0,0,0,0,0,0,0,0,0,0,0,0,0,0,0,0,0,0,0,0,0,0,0,0,0,0,0,0,0,0,0,0,0,0,0,0,0,0,0,0,0,0,0,0,0,0],"id":3,"left_children":[1,3,5,7,9,11,13,15,17,19,21,23,25,27,29,31,33,35,37,39,41,43,45,47,49,51,53,55,57,59,61,63,65,67,69,71,73,75,77,79,81,83,85,87,89,91,93,95,97,99,101,103,105,107,109,111,113,115,117,119,121,123,125,127,129,131,133,135,137,-1,139,141,-1,143,145,147,149,151,153,155,157,159,161,163,165,167,169,171,173,175,177,179,181,183,185,187,189,191,193,195,197,199,201,203,205,207,209,211,213,215,217,219,221,223,225,227,229,231,233,235,237,239,241,243,245,247,249,-1,-1,-1,-1,-1,-1,-1,-1,-1,-1,-1,-1,-1,-1,-1,-1,-1,-1,-1,-1,-1,-1,-1,-1,-1,-1,-1,-1,-1,-1,-1,-1,-1,-1,-1,-1,-1,-1,-1,-1,-1,-1,-1,-1,-1,-1,-1,-1,-1,-1,-1,-1,-1,-1,-1,-1,-1,-1,-1,-1,-1,-1,-1,-1,-1,-1,-1,-1,-1,-1,-1,-1,-1,-1,-1,-1,-1,-1,-1,-1,-1,-1,-1,-1,-1,-1,-1,-1,-1,-1,-1,-1,-1,-1,-1,-1,-1,-1,-1,-1,-1,-1,-1,-1,-1,-1,-1,-1,-1,-1,-1,-1,-1,-1,-1,-1,-1,-1,-1,-1,-1,-1,-1,-1],"loss_changes":[9.604674E4,2.5043375E4,1.1711344E4,2.2803242E3,4.985213E3,7.398573E3,2.9377734E3,8.519375E2,5.797344E2,4.7035615E3,1.3485195E3,2.2920947E3,3.2979043E3,1.1020859E3,4.2893835E2,5.43416E2,3.9088477E2,3.441006E2,2.7997266E2,1.3575479E3,9.455133E2,4.8232422E2,1.128917E3,4.723303E2,1.0917334E3,4.2733972E2,3.2614502E2,3.1860352E2,3.842422E2,1.4167078E2,2.6183585E2,4.1253516E2,4.0951025E2,2.0766602E2,6.272473E1,1.3294238E2,2.4503516E2,1.287539E2,2.4491626E2,1.2549197E3,6.1522656E2,6.7687463E2,9.2272217E2,2.7781445E2,1.5604776E2,3.3070386E2,3.0760254E2,1.4046648E2,1.3749542E2,8.433445E2,6.737959E2,6.4010925E1,9.471155E1,1.06766235E2,2.758418E2,3.3677074E1,3.5608887E2,2.144375E2,9.498901E1,3.8749443E1,3.9611694E1,1.9083784E2,1.4835278E2,4.829077E1,1.2734863E1,2.3125635E2,5.867688E1,1.4538965E2,1.00725586E2,0E0,5.108545E1,9.336279E1,0E0,1.5600049E2,5.738867E1,4.338965E1,9.084082E1,1.7418848E2,9.085671E0,2.0481104E2,2.3794798E2,5.01187E2,1.5948145E2,1.4440216E2,1.7464685E2,3.432323E2,2.727801E2,8.869458E1,1.4877246E2,8.955972E1,1.6402797E2,1.8872131E2,1.3646426E2,4.4059375E2,6.7735596E1,9.460337E1,1.14244995E2,3.2783936E1,8.423172E1,2.1698853E2,3.3218982E2,4.7900488E2,3.010537E2,6.256363E1,2.0516388E1,1.11192856E2,7.864938E1,1.05863525E2,2.3052788E1,2.0339276E2,3.290337E2,1.1937405E1,1.1918587E1,3.007141E2,2.3137012E2,2.5861328E2,1.2727295E2,6.307837E1,1.416344E2,1.4886063E1,1.9751951E1,9.80545E0,1.6315186E1,4.149436E1,2.878067E1,6.1539474E1,9.307654E1,0E0,0E0,0E0,0E0,0E0,0E0,0E0,0E0,0E0,0E0,0E0,0E0,0E0,0E0,0E0,0E0,0E0,0E0,0E0,0E0,0E0,0E0,0E0,0E0,0E0,0E0,0E0,0E0,0E0,0E0,0E0,0E0,0E0,0E0,0E0,0E0,0E0,0E0,0E0,0E0,0E0,0E0,0E0,0E0,0E0,0E0,0E0,0E0,0E0,0E0,0E0,0E0,0E0,0E0,0E0,0E0,0E0,0E0,0E0,0E0,0E0,0E0,0E0,0E0,0E0,0E0,0E0,0E0,0E0,0E0,0E0,0E0,0E0,0E0,0E0,0E0,0E0,0E0,0E0,0E0,0E0,0E0,0E0,0E0,0E0,0E0,0E0,0E0,0E0,0E0,0E0,0E0,0E0,0E0,0E0,0E0,0E0,0E0,0E0,0E0,0E0,0E0,0E0,0E0,0E0,0E0,0E0,0E0,0E0,0E0,0E0,0E0,0E0,0E0,0E0,0E0,0E0,0E0,0E0,0E0,0E0,0E0,0E0,0E0],"parents":[2147483647,0,0,1,1,2,2,3,3,4,4,5,5,6,6,7,7,8,8,9,9,10,10,11,11,12,12,13,13,14,14,15,15,16,16,17,17,18,18,19,19,20,20,21,21,22,22,23,23,24,24,25,25,26,26,27,27,28,28,29,29,30,30,31,31,32,32,33,33,34,34,35,35,36,36,37,37,38,38,39,39,40,40,41,41,42,42,43,43,44,44,45,45,46,46,47,47,48,48,49,49,50,50,51,51,52,52,53,53,54,54,55,55,56,56,57,57,58,58,59,59,60,60,61,61,62,62,63,63,64,64,65,65,66,66,67,67,68,68,70,70,71,71,73,73,74,74,75,75,76,76,77,77,78,78,79,79,80,80,81,81,82,82,83,83,84,84,85,85,86,86,87,87,88,88,89,89,90,90,91,91,92,92,93,93,94,94,95,95,96,96,97,97,98,98,99,99,100,100,101,101,102,102,103,103,104,104,105,105,106,106,107,107,108,108,109,109,110,110,111,111,112,112,113,113,114,114,115,115,116,116,117,117,118,118,119,119,120,120,121,121,122,122,123,123,124,124,125,125,126,126],"right_children":[2,4,6,8,10,12,14,16,18,20,22,24,26,28,30,32,34,36,38,40,42,44,46,48,50,52,54,56,58,60,62,64,66,68,70,72,74,76,78,80,82,84,86,88,90,92,94,96,98,100,102,104,106,108,110,112,114,116,118,120,122,124,126,128,130,132,134,136,138,-1,140,142,-1,144,146,148,150,152,154,156,158,160,162,164,166,168,170,172,174,176,178,180,182,184,186,188,190,192,194,196,198,200,202,204,206,208,210,212,214,216,218,220,222,224,226,228,230,232,234,236,238,240,242,244,246,248,250,-1,-1,-1,-1,-1,-1,-1,-1,-1,-1,-1,-1,-1,-1,-1,-1,-1,-1,-1,-1,-1,-1,-1,-1,-1,-1,-1,-1,-1,-1,-1,-1,-1,-1,-1,-1,-1,-1,-1,-1,-1,-1,-1,-1,-1,-1,-1,-1,-1,-1,-1,-1,-1,-1,-1,-1,-1,-1,-1,-1,-1,-1,-1,-1,-1,-1,-1,-1,-1,-1,-1,-1,-1,-1,-1,-1,-1,-1,-1,-1,-1,-1,-1,-1,-1,-1,-1,-1,-1,-1,-1,-1,-1,-1,-1,-1,-1,-1,-1,-1,-1,-1,-1,-1,-1,-1,-1,-1,-1,-1,-1,-1,-1,-1,-1,-1,-1,-1,-1,-1,-1,-1,-1,-1],"split_conditions":[4.0669254E2,4.04519E-4,4.082697E2,1.3549267E-1,1.8226557E1,1.3090705E0,2.2800394E1,1.19176E2,7.629366E-1,4.0538867E2,1.06876E2,4.07525E-4,2.8736E1,4.0882336E2,2.7936E1,8.7026E1,1.8620586E-1,4.035864E2,1.7325316E7,6.6308595E-2,4.05951E-4,4.07682E-4,3.7136E1,4.06848E-4,1.2920239E0,1.2008244E7,7E0,-1.4377035E1,2.2471716E7,4.1007556E2,4.08813E-4,2.3803348E7,4.8186E1,3.9283752E-1,4.5086E1,1.19176E2,1.6682965E0,1.4715428E7,1.20126E2,4.05629E-4,1.8379818E7,1.7285156E0,2.4904382E0,2.2177104E7,8.3926E1,1.16526E2,3.4632015E-1,6.855469E-1,5.361328E0,1.13226E2,2.4895237E-1,4.0778128E2,2.0860086E1,7.1149826E-1,3.328952E0,1.3448542E-1,4.0262613E0,4.13153E-4,1.5625E-2,-2.0427164E-2,1.7153186E7,4.1986E1,2.4637903E1,4.5913193E-1,1.1811637E0,4.01575E-4,4E0,1.31426E2,4.0585336E2,-5.891064E-1,1.8087736E7,9.3E1,-4.7890386E-1,1.0003789E5,1.31426E2,9.791108E4,3.9636E1,1.04626E2,4.2786E1,4.05377E-4,1.455143E7,1.09576E2,2.7964873E0,4.4836E1,6.0806274E-2,1.8379818E7,4.0643152E2,4.0547525E2,1.9502397E-1,8.3576E1,1.05276E2,1.2675956E7,2.5328089E1,1.13226E2,1.14876E2,3.9386E1,4.06422E-4,7.1120805E4,2.1220417E-1,4.070194E2,1.22726E2,4.0742413E2,1.07426E2,1.4E1,-9.283142E-1,4.0768262E2,1.13876E2,4.2536E1,2.2800394E1,1.71196E0,3.5436E1,4.10021E-4,9.637689E4,1.26076E2,6.4140625E0,1.6197094E7,8.823144E6,2.2953872E7,4.2008305E-1,4.09834E-4,2.1172988E7,8.1221277E-1,2.5469692E0,2.5445557E-1,1.7897342E2,6.7276125E0,3.8686E1,-3.63207E-1,-2.3852499E-1,-4.6578884E-1,-5.9305084E-1,-3.6865115E-1,-2.1603401E-1,-1.3041992E-1,-5.17212E-1,-4.4354138E-1,-6.086709E-1,-6.594172E-1,-1.1281067E-1,-3.2136804E-1,-1.8433893E-1,-3.7769815E-1,-2.6344672E-1,-1.9520375E-1,-4.576408E-2,-2.6713482E-1,9.321412E-2,-2.831465E-1,-1.1924692E-1,-1.5036011E-2,-3.7971506E-1,-2.5191447E-1,-4.1359445E-1,6.0891725E-2,-4.77748E-2,-1.11038685E-1,-6.38913E-2,-7.199062E-2,3.2076568E-3,-1.0162135E-1,-1.8912531E-1,-1.1692699E-1,-1.9196934E-1,3.602219E-2,-5.146522E-2,-2.7555177E-2,-1.3108413E-1,3.3869848E-3,5.6896597E-2,-1.4572853E-1,2.501121E-2,-2.517602E-1,-1.3766238E-1,-2.0628296E-1,-1.0969742E-1,4.185382E-2,3.1164265E-1,-1.00449346E-1,9.8630585E-2,-4.9986314E-2,-2.3750551E-1,-3.5315864E-3,-2.2722149E-1,-2.8590387E-1,-4.4767243E-1,-2.7461872E-1,-1.281961E-1,-1.765244E-2,7.5830705E-2,-8.822115E-2,-1.6254906E-2,-1.0242809E-1,7.21604E-2,-1.8005816E-2,3.940215E-2,-5.532376E-2,7.452288E-2,-8.5998096E-2,-4.005696E-1,6.606729E-2,1.164939E-1,1.6990617E-1,1.1261326E-1,1.3057518E-1,-1.813965E-2,3.1285402E-1,1.5852134E-1,-1.4338176E-2,1.3980673E-1,-7.8001395E-2,3.4531116E-2,-1.7667484E-1,-2.9402325E-1,-1.626821E-1,5.9628733E-2,-9.9460175E-3,-2.629865E-1,-1.8596184E-1,-4.122203E-1,3.3928763E-2,-2.9914156E-2,1.697493E-1,7.4755445E-2,1.1442419E-1,-3.529944E-1,1.8933783E-1,1.416593E-1,1.913179E-1,2.308408E-1,3.95172E-1,2.5161323E-1,2.2651012E-1,1.5983565E-1,1.769857E-1,7.657846E-2,1.5709627E-1,7.563741E-2,2.7568895E-2,1.557859E-1,6.2456477E-2,1.4041989E-1,2.900254E-1,1.8758214E-1,-1.8463731E-1,-2.6827568E-2,-4.1442427E-1,-2.0396481E-1,2.020204E-1,6.628016E-2,5.395359E-3,-1.8133011E-1],"split_indices":[30,29,30,9,10,24,10,3,13,30,3,29,2,30,2,3,13,30,11,16,29,29,2,29,9,11,36,10,11,30,29,11,2,17,2,3,6,11,3,29,11,20,12,11,3,3,13,20,20,3,22,30,16,13,12,44,9,29,20,21,11,2,10,44,24,29,31,3,30,0,11,37,0,15,3,15,2,3,2,29,11,3,16,2,17,11,30,30,6,3,3,11,16,3,3,2,29,15,8,30,3,30,3,32,13,30,3,2,10,24,2,29,15,3,20,11,11,11,13,29,11,6,24,17,7,28,2,0,0,0,0,0,0,0,0,0,0,0,0,0,0,0,0,0,0,0,0,0,0,0,0,0,0,0,0,0,0,0,0,0,0,0,0,0,0,0,0,0,0,0,0,0,0,0,0,0,0,0,0,0,0,0,0,0,0,0,0,0,0,0,0,0,0,0,0,0,0,0,0,0,0,0,0,0,0,0,0,0,0,0,0,0,0,0,0,0,0,0,0,0,0,0,0,0,0,0,0,0,0,0,0,0,0,0,0,0,0,0,0,0,0,0,0,0,0,0,0,0,0,0,0],"split_type":[0,0,0,0,0,0,0,0,0,0,0,0,0,0,0,0,0,0,0,0,0,0,0,0,0,0,0,0,0,0,0,0,0,0,0,0,0,0,0,0,0,0,0,0,0,0,0,0,0,0,0,0,0,0,0,0,0,0,0,0,0,0,0,0,0,0,0,0,0,0,0,0,0,0,0,0,0,0,0,0,0,0,0,0,0,0,0,0,0,0,0,0,0,0,0,0,0,0,0,0,0,0,0,0,0,0,0,0,0,0,0,0,0,0,0,0,0,0,0,0,0,0,0,0,0,0,0,0,0,0,0,0,0,0,0,0,0,0,0,0,0,0,0,0,0,0,0,0,0,0,0,0,0,0,0,0,0,0,0,0,0,0,0,0,0,0,0,0,0,0,0,0,0,0,0,0,0,0,0,0,0,0,0,0,0,0,0,0,0,0,0,0,0,0,0,0,0,0,0,0,0,0,0,0,0,0,0,0,0,0,0,0,0,0,0,0,0,0,0,0,0,0,0,0,0,0,0,0,0,0,0,0,0,0,0,0,0,0,0,0,0,0,0,0,0,0,0,0,0,0,0],"sum_hessian":[7.2411E4,3.5027E4,3.7384E4,6.44E3,2.8587E4,2.13E4,1.6084E4,2.188E3,4.252E3,2.546E4,3.127E3,1.9367E4,1.933E3,1.4637E4,1.447E3,1.202E3,9.86E2,2.984E3,1.268E3,1.5402E4,1.0058E4,1.679E3,1.448E3,5.801E3,1.3566E4,9.11E2,1.022E3,5.852E3,8.785E3,5.21E2,9.26E2,4.55E2,7.47E2,8.32E2,1.54E2,8.19E2,2.165E3,6.68E2,6E2,7.34E3,8.062E3,2.081E3,7.977E3,1.362E3,3.17E2,6.21E2,8.27E2,1.698E3,4.103E3,1.592E3,1.1974E4,2.37E2,6.74E2,5.18E2,5.04E2,2.47E2,5.605E3,7.586E3,1.199E3,2.81E2,2.4E2,1.37E2,7.89E2,3.24E2,1.31E2,6.73E2,7.4E1,7.5E2,8.2E1,7E0,1.47E2,7.84E2,3.5E1,1.578E3,5.87E2,1.01E2,5.67E2,5.7E2,3E1,4.741E3,2.599E3,6.195E3,1.867E3,7.9E2,1.291E3,7.367E3,6.1E2,4.37E2,9.25E2,6.2E1,2.55E2,4.5E2,1.71E2,6.95E2,1.32E2,4.35E2,1.263E3,1.52E3,2.583E3,1.305E3,2.87E2,8.053E3,3.921E3,1.95E2,4.2E1,2.71E2,4.03E2,4.93E2,2.5E1,1.58E2,3.46E2,1.78E2,6.9E1,1.073E3,4.532E3,7.305E3,2.81E2,6.32E2,5.67E2,9.6E1,1.85E2,1.23E2,1.17E2,1.03E2,3.4E1,1.9E2,5.99E2,2.8E2,4.4E1,3.7E1,9.4E1,1.24E2,5.49E2,5E0,6.9E1,6.84E2,6.6E1,7.8E1,4E0,1.03E2,4.4E1,8.6E1,6.98E2,1.504E3,7.4E1,5.83E2,4E0,7.8E1,2.3E1,7E0,5.6E2,4.9E2,8E1,1.8E1,1.2E1,3.481E3,1.26E3,5.27E2,2.072E3,5.45E3,7.45E2,3.56E2,1.511E3,4.81E2,3.09E2,1.92E2,1.099E3,5.861E3,1.506E3,4.95E2,1.15E2,3.47E2,9E1,2.07E2,7.18E2,4.6E1,1.6E1,2.04E2,5.1E1,6.3E1,3.87E2,1.38E2,3.3E1,3.27E2,3.68E2,6.6E1,6.6E1,1.98E2,2.37E2,2.84E2,9.79E2,1E1,1.51E3,2.87E2,2.296E3,1.44E2,1.161E3,2.49E2,3.8E1,3.018E3,5.035E3,2.433E3,1.488E3,1.61E2,3.4E1,2.1E1,2.1E1,2.12E2,5.9E1,3.27E2,7.6E1,3.94E2,9.9E1,5E0,2E1,4.4E1,1.14E2,8.9E1,2.57E2,1.42E2,3.6E1,1.9E1,5E1,1.06E3,1.3E1,2.948E3,1.584E3,2.637E3,4.668E3,1.05E2,1.76E2,2.41E2,3.91E2,2.92E2,2.75E2,4.5E1,5.1E1,1.73E2,1.2E1,2.2E1,1.01E2,2.4E1,9.3E1,2E1,8.3E1,1.9E1,1.5E1,4.3E1,1.47E2,5.72E2,2.7E1],"tree_param":{"num_deleted":"0","num_feature":"45","num_nodes":"251","size_leaf_vector":"1"}},{"base_weights":[2.3449294E-3,-1.1043391E0,9.6314716E-1,-2.7166486E0,-7.43609E-1,4.9725032E-1,1.5479033E0,-3.220946E0,-2.350603E0,-6.058804E-1,-1.7572199E0,7.0594156E-1,-9.62612E-1,1.6700643E0,3.367904E-1,-2.703329E0,-4.002552E0,-2.1971488E0,-3.1774032E0,-8.605075E-1,-5.535678E-2,-1.1563143E0,-2.2409408E0,2.6272938E-1,9.7523075E-1,-5.251383E-1,-2.646256E0,1.3074057E0,1.8556073E0,1.667303E0,9.417918E-3,-2.2565095E0,-3.4925904E0,-4.291211E0,-2.748934E0,-2.3833876E0,-1.6192781E0,-4.2516284E0,-2.9382641E0,-7.87131E-1,-1.5153146E0,1.4791913E-1,-7.5296015E-1,-1.5155005E0,-4.34108E-1,-3.4970508E0,-1.8184459E0,-9.295283E-2,3.958625E-1,1.0560828E0,2.5390905E-1,4.1739964E-1,-9.516402E-1,-1.3226564E0,-3.3188484E0,1.4938164E0,8.963073E-1,1.9237086E0,1.29002E0,2.1523457E0,1.4600351E0,1.3672973E-1,-2.9630046E0,-2.1327713E0,-4.557455E0,-3.6555376E0,-1.1537275E0,-6.713376E0,-4.147626E0,-4.452112E0,-2.4722776E0,-1.9821566E0,-2.5549984E0,-4.318917E0,-1.5184215E0,-4.278759E0,-7.964325E-2,-2.056863E0,-3.071067E0,-1.0897602E0,-6.351413E-1,-1.1049356E0,-1.9755814E0,-4.6861368E-1,2.515161E-1,-2.0765896E0,-5.296087E-1,-1.7350639E0,-1.0529659E0,-5.778836E-1,1.3379047E0,-3.9789648E0,-2.1852553E0,-2.9988158E0,-1.6341598E0,3.6322284E-1,-3.399592E-1,6.939934E-2,4.5962E-1,7.7099836E-1,1.262685E0,4.27725E-1,-2.1500974E0,3.3639657E-1,1.7152084E0,-1.3565694E0,-4.9150124E-1,9.547193E-2,-2.0668E0,-1.6127046E0,-3.8100667E0,4.1301373E-1,1.5616606E0,9.7279257E-1,-2.0569682E0,1.0198265E0,1.9581428E0,1.4112735E0,2.3674564E-1,2.3200033E0,3.6702135E-1,8.565418E-1,1.5728416E0,-1.938531E-1,6.532385E-1,-4.040762E-1,-1.1796119E0,-2.3759817E-1,-1.4552729E-1,-2.868671E-1,-5.0152636E-1,-3.2976052E-1,-4.5178628E-1,-4.414955E-1,-7.4805215E-2,-2.7716586E-1,-7.248726E-1,-4.0378475E-1,-5.657006E-1,-5.072351E-1,-2.0439847E-1,-2.876976E-1,-1.3519612E-1,-1.7654549E-1,-3.1382772E-1,-2.9792756E-1,-2.223891E-1,-4.4916293E-1,-1.497579E-1,-2.0929754E-1,-1.2976652E-1,-4.2988178E-1,-1.16651915E-1,-2.8101188E-1,-1.3317297E-1,-3.4266853E-1,-2.3963177E-1,-1.0159737E-1,-1.8851522E-1,-3.9710116E-2,-8.079509E-2,-1.2924775E-1,-2.0876361E-2,-9.605553E-2,-2.0976368E-1,-1.7168222E-1,-4.1469928E-2,1.407887E-2,7.059806E-2,1.1970621E-1,-2.2329226E-1,-1.9589555E-2,-1.0524335E-1,-1.8233584E-1,2.5810717E-2,-2.1215855E-1,-9.09023E-2,-6.997009E-2,2.0163653E-2,2.4062577E-1,7.6517737E-3,-4.1452703E-1,-1.16902165E-1,-1.0514758E-1,-2.6320487E-1,2.5963137E-1,-3.1064922E-1,1.0830245E-1,-1.7058599E-1,8.838336E-2,-1.4343147E-2,2.2371639E-2,-5.10807E-2,-2.6314096E-3,6.5107785E-2,6.202791E-2,3.401662E-2,8.593101E-2,6.132191E-3,3.7564527E-2,1.3492201E-1,-4.3190014E-2,6.1355382E-2,-3.0645803E-1,-1.3322346E-1,1.03501834E-1,1.3283691E-2,1.3542546E-1,5.595235E-1,-7.245433E-2,-2.1104924E-1,-8.460416E-3,-1.2574716E-1,4.4423074E-2,-7.2888486E-2,-3.484592E-1,-1.3244618E-1,-4.866933E-2,-2.1670194E-1,-1.8420139E-1,-4.078226E-1,7.938571E-2,-1.13767825E-1,1.6020189E-1,2.8516287E-2,1.7295216E-1,8.898359E-2,-2.804167E-1,3.0369708E-2,1.2085153E-1,-7.721724E-2,1.8624632E-1,2.3504864E-1,1.0138613E-1,1.5908045E-1,-4.7549725E-2,1.09234564E-1,3.791504E-2,2.3880458E-1,-5.326538E-2,5.4606248E-2,1.5988342E-1,5.6084663E-2,1.8173468E-1,1.2364729E-1,-1.1551689E-1,-5.7491693E-3,1.304018E-1,4.138642E-2,1.0104554E-1,-1.7543605E-1],"categories":[],"categories_nodes":[],"categories_segments":[],"categories_sizes":[],"default_left":[0,0,0,0,1,1,1,0,1,0,0,0,0,0,0,0,0,0,0,0,1,0,0,0,1,1,0,0,1,0,1,0,0,0,0,0,0,0,0,0,0,0,0,0,0,0,0,0,0,0,0,0,0,0,0,0,0,0,1,0,0,0,0,0,0,0,0,0,0,0,0,0,0,0,0,1,0,0,0,0,0,0,0,0,0,0,0,0,0,0,0,0,0,0,0,0,0,0,0,1,0,0,0,0,0,0,0,0,0,0,0,1,1,0,0,0,0,0,0,0,0,0,0,0,1,0,0,0,0,0,0,0,0,0,0,0,0,0,0,0,0,0,0,0,0,0,0,0,0,0,0,0,0,0,0,0,0,0,0,0,0,0,0,0,0,0,0,0,0,0,0,0,0,0,0,0,0,0,0,0,0,0,0,0,0,0,0,0,0,0,0,0,0,0,0,0,0,0,0,0,0,0,0,0,0,0,0,0,0,0,0,0,0,0,0,0,0,0,0,0,0,0,0,0,0,0,0,0,0,0,0,0,0,0,0,0,0,0,0,0,0,0,0,0,0,0,0,0,0,0,0],"id":4,"left_children":[1,3,5,7,9,11,13,15,17,19,21,23,25,27,29,31,33,35,37,39,41,43,45,47,49,51,53,55,57,59,61,63,65,67,69,71,73,75,77,79,81,83,85,87,89,91,93,95,97,99,101,103,105,107,109,111,113,115,117,119,121,123,125,127,129,131,133,135,137,139,141,143,145,147,149,151,-1,153,155,157,159,161,163,165,167,169,171,173,175,177,179,181,183,185,187,189,191,193,195,197,199,201,203,205,207,209,211,213,215,217,219,221,223,225,227,229,231,233,235,237,239,241,243,245,247,-1,249,-1,-1,-1,-1,-1,-1,-1,-1,-1,-1,-1,-1,-1,-1,-1,-1,-1,-1,-1,-1,-1,-1,-1,-1,-1,-1,-1,-1,-1,-1,-1,-1,-1,-1,-1,-1,-1,-1,-1,-1,-1,-1,-1,-1,-1,-1,-1,-1,-1,-1,-1,-1,-1,-1,-1,-1,-1,-1,-1,-1,-1,-1,-1,-1,-1,-1,-1,-1,-1,-1,-1,-1,-1,-1,-1,-1,-1,-1,-1,-1,-1,-1,-1,-1,-1,-1,-1,-1,-1,-1,-1,-1,-1,-1,-1,-1,-1,-1,-1,-1,-1,-1,-1,-1,-1,-1,-1,-1,-1,-1,-1,-1,-1,-1,-1,-1,-1,-1,-1,-1,-1,-1,-1,-1],"loss_changes":[7.694496E4,1.955689E4,1.0552039E4,1.1273242E3,3.8355117E3,6.5691597E3,2.5406367E3,1.0341934E3,4.4545898E2,3.391704E3,9.5284375E2,2.251205E3,1.9850854E3,1.0474141E3,6.860121E2,5.4120703E2,3.598418E2,3.2019043E2,1.3033789E2,7.937051E2,1.0853524E3,3.8015088E2,9.595156E2,3.377116E2,6.840615E2,8.614688E2,4.905857E2,4.0359082E2,3.9497656E2,2.8123474E1,4.7911215E2,2.7414062E2,2.0958545E2,2.618623E2,8.087622E1,1.5158203E2,1.9410962E2,5.8724365E0,4.7293457E1,6.836904E2,3.124978E2,3.7868085E2,5.0946112E2,9.769751E1,1.2535677E2,2.80208E2,2.918042E2,2.1905743E2,1.0797443E2,6.204697E2,4.9565952E2,6.964753E1,2.7416052E2,1.9964731E2,3.0227246E2,2.6582373E2,3.7493213E2,2.8460156E2,1.4168298E2,2.6386932E1,1.3698059E1,2.0741583E2,9.518085E1,1.5274854E2,2.4269775E1,1.4683691E2,4.697138E1,7.486804E1,1.0789453E2,2.8466187E1,7.318677E1,1.6632544E2,2.1674023E2,5.9427185E0,8.759155E1,1.1035156E0,0E0,3.0668945E1,8.681006E1,2.899458E2,4.0720972E2,1.4813586E2,9.51145E1,5.6691895E1,2.5528308E2,1.301062E2,2.578402E2,1.1714905E2,4.6986237E1,4.3157516E1,4.9677322E1,1.5076758E2,6.05531E1,1.1831592E2,2.3212793E2,1.802815E2,1.21552E2,4.7284737E1,8.309857E1,2.7796387E2,4.6895703E2,1.7678114E2,5.5750946E1,8.9455574E1,4.7042526E1,3.7204614E2,2.1557004E2,1.9298906E1,1.25892456E2,5.1375168E1,1.4289746E2,1.2846645E2,1.7568066E2,9.953003E1,7.4934814E1,1.1589743E2,3.285586E2,6.9520996E1,7.120923E1,1.0055603E1,1.7405717E0,7.224516E0,1.2968048E1,9.70686E1,7.329997E1,0E0,2.8206198E1,0E0,0E0,0E0,0E0,0E0,0E0,0E0,0E0,0E0,0E0,0E0,0E0,0E0,0E0,0E0,0E0,0E0,0E0,0E0,0E0,0E0,0E0,0E0,0E0,0E0,0E0,0E0,0E0,0E0,0E0,0E0,0E0,0E0,0E0,0E0,0E0,0E0,0E0,0E0,0E0,0E0,0E0,0E0,0E0,0E0,0E0,0E0,0E0,0E0,0E0,0E0,0E0,0E0,0E0,0E0,0E0,0E0,0E0,0E0,0E0,0E0,0E0,0E0,0E0,0E0,0E0,0E0,0E0,0E0,0E0,0E0,0E0,0E0,0E0,0E0,0E0,0E0,0E0,0E0,0E0,0E0,0E0,0E0,0E0,0E0,0E0,0E0,0E0,0E0,0E0,0E0,0E0,0E0,0E0,0E0,0E0,0E0,0E0,0E0,0E0,0E0,0E0,0E0,0E0,0E0,0E0,0E0,0E0,0E0,0E0,0E0,0E0,0E0,0E0,0E0,0E0,0E0,0E0,0E0,0E0,0E0,0E0,0E0,0E0],"parents":[2147483647,0,0,1,1,2,2,3,3,4,4,5,5,6,6,7,7,8,8,9,9,10,10,11,11,12,12,13,13,14,14,15,15,16,16,17,17,18,18,19,19,20,20,21,21,22,22,23,23,24,24,25,25,26,26,27,27,28,28,29,29,30,30,31,31,32,32,33,33,34,34,35,35,36,36,37,37,38,38,39,39,40,40,41,41,42,42,43,43,44,44,45,45,46,46,47,47,48,48,49,49,50,50,51,51,52,52,53,53,54,54,55,55,56,56,57,57,58,58,59,59,60,60,61,61,62,62,63,63,64,64,65,65,66,66,67,67,68,68,69,69,70,70,71,71,72,72,73,73,74,74,75,75,77,77,78,78,79,79,80,80,81,81,82,82,83,83,84,84,85,85,86,86,87,87,88,88,89,89,90,90,91,91,92,92,93,93,94,94,95,95,96,96,97,97,98,98,99,99,100,100,101,101,102,102,103,103,104,104,105,105,106,106,107,107,108,108,109,109,110,110,111,111,112,112,113,113,114,114,115,115,116,116,117,117,118,118,119,119,120,120,121,121,122,122,123,123,124,124,126,126],"right_children":[2,4,6,8,10,12,14,16,18,20,22,24,26,28,30,32,34,36,38,40,42,44,46,48,50,52,54,56,58,60,62,64,66,68,70,72,74,76,78,80,82,84,86,88,90,92,94,96,98,100,102,104,106,108,110,112,114,116,118,120,122,124,126,128,130,132,134,136,138,140,142,144,146,148,150,152,-1,154,156,158,160,162,164,166,168,170,172,174,176,178,180,182,184,186,188,190,192,194,196,198,200,202,204,206,208,210,212,214,216,218,220,222,224,226,228,230,232,234,236,238,240,242,244,246,248,-1,250,-1,-1,-1,-1,-1,-1,-1,-1,-1,-1,-1,-1,-1,-1,-1,-1,-1,-1,-1,-1,-1,-1,-1,-1,-1,-1,-1,-1,-1,-1,-1,-1,-1,-1,-1,-1,-1,-1,-1,-1,-1,-1,-1,-1,-1,-1,-1,-1,-1,-1,-1,-1,-1,-1,-1,-1,-1,-1,-1,-1,-1,-1,-1,-1,-1,-1,-1,-1,-1,-1,-1,-1,-1,-1,-1,-1,-1,-1,-1,-1,-1,-1,-1,-1,-1,-1,-1,-1,-1,-1,-1,-1,-1,-1,-1,-1,-1,-1,-1,-1,-1,-1,-1,-1,-1,-1,-1,-1,-1,-1,-1,-1,-1,-1,-1,-1,-1,-1,-1,-1,-1,-1,-1,-1],"split_conditions":[4.0656815E2,4.0500458E2,4.0813644E2,1.2920239E0,1.8542933E1,1.7871744E1,2.254745E1,1.19176E2,1.2535791E0,4.06463E-4,1.00376E2,4.0759E-4,3.6E1,4.0866327E2,6E0,4.6036E1,1.6245842E-1,2.061712E1,1.552942E7,1.4828472E0,1.2483467E0,4.0519055E2,4.0663477E2,4.06833E-4,4.4236E1,1.4662114E-1,3.6522222E0,4.3686E1,2.3051894E7,2.2636364E0,4.2986E1,2.9365808E1,2.5096452E7,-6.6362095E-1,1.6294504E7,4.0223428E2,4.0322723E2,1.25326E2,5.8391225E-1,4.05377E-4,8.468363E0,1.5198624E9,5.8288074E4,2.3643548E7,4.4436E1,9E0,4.0481342E2,1.0644531E0,4.0676584E2,4.0742413E2,8.783867E-1,9E0,4.080804E2,1.9638E0,3.5236E1,4.0841458E2,1.3596333E0,2E0,1.15776E2,2.758967E1,5E0,4.1010596E2,1.7897342E2,2.2262956E7,4.0405386E2,4.0405386E2,8.6426E1,1.21426E2,1.0003789E5,1.27176E2,4.297787E0,1.552942E7,4.02749E-4,4.4836E1,1.53576E9,1.5236364E-1,-7.964325E-2,-2.1553993E-1,1.6558207E1,1.1277277E1,7.87354E-4,1.0310714E-1,-6.7519474E-1,7.8126E1,4.0630667E2,7.8826E1,3.1536E1,9.9626E1,8.2326E1,4.08296E-4,1.7821142E-1,1.2415237E0,1.4101318E-1,-7.795048E-1,-2.1334095E0,4.068039E2,1.3602295E1,4.0789685E2,5.361328E0,2.604102E0,2E0,4.0757782E2,5.355337E2,9.780884E-3,1.749845E7,3E0,4.096245E2,4.6786E1,1.10326E2,5.800643E0,9.620792E4,3.0615234E1,4.760205E-1,7.177552E6,1.29176E2,6.776704E2,4.11127E-4,8.7326E1,4.0935553E2,1.4970567E7,2.8503254E-1,5.833758E-1,-4.614544E-2,-1.2471962E-1,3.014E-1,-4.040762E-1,1.20126E2,-2.3759817E-1,-1.4552729E-1,-2.868671E-1,-5.0152636E-1,-3.2976052E-1,-4.5178628E-1,-4.414955E-1,-7.4805215E-2,-2.7716586E-1,-7.248726E-1,-4.0378475E-1,-5.657006E-1,-5.072351E-1,-2.0439847E-1,-2.876976E-1,-1.3519612E-1,-1.7654549E-1,-3.1382772E-1,-2.9792756E-1,-2.223891E-1,-4.4916293E-1,-1.497579E-1,-2.0929754E-1,-1.2976652E-1,-4.2988178E-1,-1.16651915E-1,-2.8101188E-1,-1.3317297E-1,-3.4266853E-1,-2.3963177E-1,-1.0159737E-1,-1.8851522E-1,-3.9710116E-2,-8.079509E-2,-1.2924775E-1,-2.0876361E-2,-9.605553E-2,-2.0976368E-1,-1.7168222E-1,-4.1469928E-2,1.407887E-2,7.059806E-2,1.1970621E-1,-2.2329226E-1,-1.9589555E-2,-1.0524335E-1,-1.8233584E-1,2.5810717E-2,-2.1215855E-1,-9.09023E-2,-6.997009E-2,2.0163653E-2,2.4062577E-1,7.6517737E-3,-4.1452703E-1,-1.16902165E-1,-1.0514758E-1,-2.6320487E-1,2.5963137E-1,-3.1064922E-1,1.0830245E-1,-1.7058599E-1,8.838336E-2,-1.4343147E-2,2.2371639E-2,-5.10807E-2,-2.6314096E-3,6.5107785E-2,6.202791E-2,3.401662E-2,8.593101E-2,6.132191E-3,3.7564527E-2,1.3492201E-1,-4.3190014E-2,6.1355382E-2,-3.0645803E-1,-1.3322346E-1,1.03501834E-1,1.3283691E-2,1.3542546E-1,5.595235E-1,-7.245433E-2,-2.1104924E-1,-8.460416E-3,-1.2574716E-1,4.4423074E-2,-7.2888486E-2,-3.484592E-1,-1.3244618E-1,-4.866933E-2,-2.1670194E-1,-1.8420139E-1,-4.078226E-1,7.938571E-2,-1.13767825E-1,1.6020189E-1,2.8516287E-2,1.7295216E-1,8.898359E-2,-2.804167E-1,3.0369708E-2,1.2085153E-1,-7.721724E-2,1.8624632E-1,2.3504864E-1,1.0138613E-1,1.5908045E-1,-4.7549725E-2,1.09234564E-1,3.791504E-2,2.3880458E-1,-5.326538E-2,5.4606248E-2,1.5988342E-1,5.6084663E-2,1.8173468E-1,1.2364729E-1,-1.1551689E-1,-5.7491693E-3,1.304018E-1,4.138642E-2,1.0104554E-1,-1.7543605E-1],"split_indices":[30,25,30,9,16,10,10,3,13,29,3,29,41,30,1,2,13,16,11,12,12,30,25,29,2,43,12,2,11,24,2,10,11,14,11,25,25,3,24,29,16,4,15,11,2,1,30,20,30,30,24,1,25,24,2,25,24,1,3,16,1,25,7,11,30,30,3,3,15,3,12,11,29,2,4,23,0,14,10,16,10,23,14,3,30,3,2,3,3,29,44,14,6,14,13,30,9,25,20,12,1,30,7,17,11,36,25,2,3,12,15,20,44,11,3,7,29,3,30,11,6,12,13,14,23,0,3,0,0,0,0,0,0,0,0,0,0,0,0,0,0,0,0,0,0,0,0,0,0,0,0,0,0,0,0,0,0,0,0,0,0,0,0,0,0,0,0,0,0,0,0,0,0,0,0,0,0,0,0,0,0,0,0,0,0,0,0,0,0,0,0,0,0,0,0,0,0,0,0,0,0,0,0,0,0,0,0,0,0,0,0,0,0,0,0,0,0,0,0,0,0,0,0,0,0,0,0,0,0,0,0,0,0,0,0,0,0,0,0,0,0,0,0,0,0,0,0,0,0,0,0],"split_type":[0,0,0,0,0,0,0,0,0,0,0,0,0,0,0,0,0,0,0,0,0,0,0,0,0,0,0,0,0,0,0,0,0,0,0,0,0,0,0,0,0,0,0,0,0,0,0,0,0,0,0,0,0,0,0,0,0,0,0,0,0,0,0,0,0,0,0,0,0,0,0,0,0,0,0,0,0,0,0,0,0,0,0,0,0,0,0,0,0,0,0,0,0,0,0,0,0,0,0,0,0,0,0,0,0,0,0,0,0,0,0,0,0,0,0,0,0,0,0,0,0,0,0,0,0,0,0,0,0,0,0,0,0,0,0,0,0,0,0,0,0,0,0,0,0,0,0,0,0,0,0,0,0,0,0,0,0,0,0,0,0,0,0,0,0,0,0,0,0,0,0,0,0,0,0,0,0,0,0,0,0,0,0,0,0,0,0,0,0,0,0,0,0,0,0,0,0,0,0,0,0,0,0,0,0,0,0,0,0,0,0,0,0,0,0,0,0,0,0,0,0,0,0,0,0,0,0,0,0,0,0,0,0,0,0,0,0,0,0,0,0,0,0,0,0,0,0,0,0,0,0],"sum_hessian":[7.2362E4,3.3628E4,3.8734E4,6.147E3,2.7481E4,2.1559E4,1.7175E4,2.582E3,3.565E3,2.4195E4,3.286E3,1.8863E4,2.696E3,1.5601E4,1.574E3,1.556E3,1.026E3,3.01E3,5.55E2,1.6543E4,7.652E3,1.467E3,1.819E3,7.13E3,1.1733E4,2.141E3,5.55E2,5.283E3,1.0318E4,3.1E2,1.264E3,9.96E2,5.6E2,8.32E2,1.94E2,2.274E3,7.36E2,9.8E1,4.57E2,1.4878E4,1.665E3,5.926E3,1.726E3,9.79E2,4.88E2,4.56E2,1.363E3,1.942E3,5.188E3,1.055E4,1.183E3,6.67E2,1.474E3,1.88E2,3.67E2,3.633E3,1.65E3,9.207E3,1.111E3,9E1,2.2E2,1.213E3,5.1E1,9.47E2,4.9E1,5.23E2,3.7E1,4.4E1,7.88E2,2.5E1,1.69E2,6.85E2,1.589E3,2.5E1,7.11E2,9.7E1,1E0,6.2E1,3.95E2,4.972E3,9.906E3,8.82E2,7.83E2,8.52E2,5.074E3,2.48E2,1.478E3,6.62E2,3.17E2,4.52E2,3.6E1,3.32E2,1.24E2,1.82E2,1.181E3,6.82E2,1.26E3,8.48E2,4.34E3,4.435E3,6.115E3,1.104E3,7.9E1,6.29E2,3.8E1,7.83E2,6.91E2,6.5E1,1.23E2,8.3E1,2.84E2,2.15E2,3.418E3,1.609E3,4.1E1,3.39E2,8.868E3,9.96E2,1.15E2,8.2E1,8E0,3.6E1,1.84E2,7.4E2,4.73E2,3.1E1,2E1,6.95E2,2.52E2,1.2E1,3.7E1,3.73E2,1.5E2,3E0,3.4E1,6E0,3.8E1,7.38E2,5E1,1.9E1,6E0,1.23E2,4.6E1,5.79E2,1.06E2,6.93E2,8.96E2,2.3E1,2E0,1.95E2,5.16E2,9.6E1,1E0,2.9E1,3.3E1,2.56E2,1.39E2,4.552E3,4.2E2,4.168E3,5.738E3,7.29E2,1.53E2,8.5E1,6.98E2,3.4E1,8.18E2,4.081E3,9.93E2,1.1E1,2.37E2,9.03E2,5.75E2,6.34E2,2.8E1,3.6E1,2.81E2,3.91E2,6.1E1,1.9E1,1.7E1,3.13E2,1.9E1,3.6E1,8.8E1,3E0,1.79E2,3E1,1.151E3,3.36E2,3.46E2,2.93E2,9.67E2,7.29E2,1.19E2,1.849E3,2.491E3,3.944E3,4.91E2,5.44E2,5.571E3,1.96E2,9.08E2,3.6E1,4.3E1,1.41E2,4.88E2,3.6E1,2E0,4.27E2,3.56E2,4.52E2,2.39E2,4.6E1,1.9E1,4.1E1,8.2E1,2.8E1,5.5E1,3.5E1,2.49E2,1.73E2,4.2E1,3.313E3,1.05E2,1.57E2,1.452E3,3.1E1,1E1,3.07E2,3.2E1,7.134E3,1.734E3,3.12E2,6.84E2,6.3E1,5.2E1,3E0,7.9E1,1E0,7E0,9E0,2.7E1,1.04E2,8E1,9.1E1,6.49E2,1.26E2,3.47E2,4E0,1.6E1],"tree_param":{"num_deleted":"0","num_feature":"45","num_nodes":"251","size_leaf_vector":"1"}},{"base_weights":[1.0170857E-3,-1.0402792E0,8.3736086E-1,-2.449521E0,-7.1124077E-1,3.3643284E-1,1.3122308E0,-3.185507E0,-2.2284236E0,-5.9687936E-1,-1.5551008E0,5.1858157E-1,-9.8693913E-1,1.415464E0,3.7544942E-1,-2.9973652E0,-5.4503627E0,-2.3984845E0,-1.6756723E0,-8.881649E-1,-2.5830463E-1,-1.0516683E0,-1.9781593E0,1.9415306E-1,7.559607E-1,-2.1531573E-1,-2.0811648E0,1.1020175E0,1.6683486E0,1.4034289E0,1.3819039E-2,-4.2965794E0,-2.8055522E0,-6.7961556E-1,-4.7855425E0,-2.933276E0,-2.2370646E0,-1.3407949E0,-2.3427083E0,-8.109163E-1,-1.7950221E0,-6.394792E-1,-4.709521E-2,-1.1651664E0,8.28339E-1,-1.5701823E0,-2.9175014E0,2.7467737E-1,-3.469234E-1,-9.963888E-1,8.175472E-1,-2.4320625E-2,-1.8563887E0,-1.1542275E0,-2.8312042E0,1.1400965E0,-5.230075E-1,1.8019876E0,1.4320861E0,1.1830174E0,1.8267565E0,-9.5835644E-1,2.6489928E-1,-4.9068475E-1,-3.8855846E0,-3.1691768E0,-2.3913345E0,-3.1892157E-1,-5.198445E-1,-2.7709036E0,-4.0416765E0,-2.154956E0,-3.2805614E0,-1.4112468E0,3.2057732E-1,1.9287022E0,-2.4184148E0,-6.2114096E-1,-1.0239018E0,-1.2915956E0,-2.206469E0,-8.0172276E-1,-2.6407E-1,7.083961E-2,-1.2640584E0,-1.5151471E0,-7.374146E-1,1.1260694E0,-1.1957453E0,-2.7157407E0,-1.3705353E0,-2.510908E0,-3.6817696E0,6.026256E-1,2.0894867E-1,-9.7677517E-1,1.7842288E-1,-2.6787412E-1,-3.2313693E0,6.912608E-1,1.1560957E0,1.6642489E-1,-9.155118E-1,2.4515755E-1,-2.40675E0,4.9914464E-1,-1.2939167E0,-1.7366269E0,-3.9315326E0,1.2170467E0,3.3630615E-1,3.7135735E-1,-1.8812091E0,8.910747E-1,1.8646541E0,1.2537532E0,2.231683E0,9.1974634E-1,1.4625592E0,1.3676535E0,1.9775786E0,-7.44115E-1,-3.2863924E-1,5.3477734E-1,-1.2358456E-1,-3.9948174E-1,-2.5989076E-1,-2.6877204E-1,-3.4664017E-1,-1.0928532E-1,-2.502148E-1,-2.9988313E-1,-1.7190574E-1,-4.091416E-1,-1.0033163E-1,-2.618682E-1,-1.9579567E-1,-4.3194875E-1,-1.332097E-1,-1.566957E-1,-9.055891E-2,-8.272044E-2,5.731201E-2,5.4753114E-2,2.0676422E-1,-2.6855528E-1,-1.6225342E-1,-7.983512E-2,-1.5521987E-2,-6.225554E-2,-1.2097917E-1,-1.168898E-1,-2.636066E-1,-2.0855752E-1,-3.2424593E-1,-1.0091255E-1,-5.31962E-2,-6.096213E-2,2.6151226E-3,-3.714442E-2,1.4550305E-2,-5.355848E-2,-1.6369511E-1,-1.6005652E-1,3.0812163E-2,4.9814326E-3,-8.17224E-2,2.1282189E-1,6.425592E-2,-3.754229E-2,-2.1050477E-1,-3.732352E-1,-1.5954192E-1,9.001474E-2,-1.4479946E-1,-2.5620693E-1,2.4015808E-1,-3.825244E-1,-1.9065095E-2,9.083816E-2,4.1054375E-2,9.519483E-3,5.3561863E-2,1.1154826E-2,-1.1540407E-1,-5.042736E-2,2.5783239E-2,-7.97043E-2,2.8441949E-2,-1.0030168E-1,-3.3919808E-1,7.339085E-2,-4.123831E-2,1.7739274E-1,8.939063E-2,-7.545527E-2,3.5495494E-2,-6.407042E-3,-1.7663708E-1,1.828209E-1,-2.9274115E-2,-3.014886E-1,-1.9874139E-1,2.3219108E-3,4.1817626E-1,-8.335119E-2,-1.5838782E-1,-8.100697E-2,-2.2345896E-1,-3.1130224E-1,-4.3677408E-1,-2.8156264E-2,1.2516291E-1,1.8359717E-3,8.6495735E-2,5.9257884E-2,-7.892247E-2,-2.674314E-1,-2.5314918E-2,1.1624116E-1,-2.0794822E-2,1.6615142E-1,1.9745496E-1,2.682952E-1,1.2202402E-1,3.3874595E-1,2.0282125E-1,2.9786378E-2,1.2462143E-1,1.6922484E-1,6.737633E-2,1.9648317E-1,1.0639676E-1,2.4545383E-1,1.790867E-1,-2.4240192E-2,-1.3151576E-1,-1.4128868E-1,5.872534E-2,-7.231898E-2,4.3204497E-3],"categories":[],"categories_nodes":[],"categories_segments":[],"categories_sizes":[],"default_left":[0,0,0,0,1,1,1,0,0,0,0,0,0,0,0,0,0,0,0,1,0,0,1,0,0,0,1,1,0,0,0,0,0,0,0,0,0,1,0,0,0,1,1,0,0,0,0,0,0,0,1,0,0,1,0,1,1,0,0,0,0,1,0,0,0,0,0,0,0,0,0,0,1,0,0,0,1,0,0,0,0,0,0,0,0,0,0,0,0,0,0,0,0,0,0,0,0,0,0,1,0,0,0,0,0,0,0,0,0,0,0,0,0,0,0,0,0,1,0,0,0,0,0,0,0,0,0,0,0,0,0,0,0,0,0,0,0,0,0,0,0,0,0,0,0,0,0,0,0,0,0,0,0,0,0,0,0,0,0,0,0,0,0,0,0,0,0,0,0,0,0,0,0,0,0,0,0,0,0,0,0,0,0,0,0,0,0,0,0,0,0,0,0,0,0,0,0,0,0,0,0,0,0,0,0,0,0,0,0,0,0,0,0,0,0,0,0,0,0,0,0,0,0,0,0,0,0,0,0,0,0,0,0,0,0,0,0,0,0,0,0],"id":5,"left_children":[1,3,5,7,9,11,13,15,17,19,21,23,25,27,29,31,33,35,37,39,41,43,45,47,49,51,53,55,57,59,61,63,65,-1,67,69,71,73,75,77,79,81,83,85,87,89,91,93,95,97,99,101,103,105,107,109,111,113,115,117,119,121,123,-1,125,127,129,-1,-1,131,133,135,137,139,141,143,145,147,149,151,153,155,157,159,161,163,165,167,169,171,173,175,177,179,181,183,185,187,189,191,193,195,197,199,201,203,205,207,209,211,213,215,217,219,221,223,225,227,229,231,233,235,-1,237,239,-1,-1,-1,-1,-1,-1,-1,-1,-1,-1,-1,-1,-1,-1,-1,-1,-1,-1,-1,-1,-1,-1,-1,-1,-1,-1,-1,-1,-1,-1,-1,-1,-1,-1,-1,-1,-1,-1,-1,-1,-1,-1,-1,-1,-1,-1,-1,-1,-1,-1,-1,-1,-1,-1,-1,-1,-1,-1,-1,-1,-1,-1,-1,-1,-1,-1,-1,-1,-1,-1,-1,-1,-1,-1,-1,-1,-1,-1,-1,-1,-1,-1,-1,-1,-1,-1,-1,-1,-1,-1,-1,-1,-1,-1,-1,-1,-1,-1,-1,-1,-1,-1,-1,-1,-1,-1,-1,-1,-1,-1,-1,-1,-1,-1,-1,-1],"loss_changes":[6.319727E4,1.4986262E4,9.572631E3,9.884531E2,2.528082E3,4.7217275E3,1.9973359E3,5.8491113E2,4.3853906E2,2.2759648E3,6.639121E2,1.3257788E3,2.0006138E3,1.4731367E3,7.6280884E2,3.1316113E2,6.3210693E1,3.0403906E2,2.4502905E2,8.676279E2,8.593892E2,3.0609448E2,6.4614404E2,3.171092E2,1.0737661E3,4.3594556E2,6.780669E2,5.149365E2,3.2253516E2,4.766455E1,3.7103275E2,2.256958E1,1.641289E2,0E0,3.285547E1,1.3835889E2,2.3009082E2,8.730127E1,1.2431262E2,4.6151953E2,1.9869067E2,2.3160303E2,9.86088E2,2.008346E2,5.0762268E1,2.6752515E2,1.5016846E2,1.3640726E2,3.1220386E2,5.494715E2,4.09854E2,2.1213078E2,1.6829843E2,1.02267456E2,6.447495E2,5.0195117E2,2.3271164E2,3.7354883E2,5.283667E2,2.470752E1,9.828308E0,1.5316818E2,1.26716774E2,0E0,4.234619E0,7.711621E1,7.4534424E1,0E0,0E0,1.693794E2,1.1612183E1,2.2955957E2,3.991084E2,5.464099E1,9.459872E0,2.1120262E-1,7.3032715E1,4.9931787E2,4.010752E2,6.9502625E1,6.011841E1,1.4812E2,1.15345215E2,2.0690652E2,1.6401025E2,1.1589661E2,3.830316E1,3.352005E1,7.4148483E0,1.933584E2,1.7929968E2,9.1102295E1,8.742651E1,6.1704834E1,1.960793E2,8.2892365E1,2.8049498E1,7.504437E1,2.6303467E1,3.2968286E2,4.208816E2,1.7876146E2,1.5926723E2,2.6932352E1,2.3334717E1,6.1245716E1,5.2880737E1,1.24149536E2,8.244678E1,3.8448242E2,1.1949095E2,3.025017E1,9.745593E1,1.26979004E2,1.3399023E2,1.4271533E2,1.5257227E2,3.718837E1,2.9660034E1,6.6145096E0,7.5374756E0,8.1906586E1,0E0,7.370238E1,4.963501E1,0E0,0E0,0E0,0E0,0E0,0E0,0E0,0E0,0E0,0E0,0E0,0E0,0E0,0E0,0E0,0E0,0E0,0E0,0E0,0E0,0E0,0E0,0E0,0E0,0E0,0E0,0E0,0E0,0E0,0E0,0E0,0E0,0E0,0E0,0E0,0E0,0E0,0E0,0E0,0E0,0E0,0E0,0E0,0E0,0E0,0E0,0E0,0E0,0E0,0E0,0E0,0E0,0E0,0E0,0E0,0E0,0E0,0E0,0E0,0E0,0E0,0E0,0E0,0E0,0E0,0E0,0E0,0E0,0E0,0E0,0E0,0E0,0E0,0E0,0E0,0E0,0E0,0E0,0E0,0E0,0E0,0E0,0E0,0E0,0E0,0E0,0E0,0E0,0E0,0E0,0E0,0E0,0E0,0E0,0E0,0E0,0E0,0E0,0E0,0E0,0E0,0E0,0E0,0E0,0E0,0E0,0E0,0E0,0E0,0E0,0E0,0E0,0E0,0E0,0E0,0E0],"parents":[2147483647,0,0,1,1,2,2,3,3,4,4,5,5,6,6,7,7,8,8,9,9,10,10,11,11,12,12,13,13,14,14,15,15,16,16,17,17,18,18,19,19,20,20,21,21,22,22,23,23,24,24,25,25,26,26,27,27,28,28,29,29,30,30,31,31,32,32,34,34,35,35,36,36,37,37,38,38,39,39,40,40,41,41,42,42,43,43,44,44,45,45,46,46,47,47,48,48,49,49,50,50,51,51,52,52,53,53,54,54,55,55,56,56,57,57,58,58,59,59,60,60,61,61,62,62,64,64,65,65,66,66,69,69,70,70,71,71,72,72,73,73,74,74,75,75,76,76,77,77,78,78,79,79,80,80,81,81,82,82,83,83,84,84,85,85,86,86,87,87,88,88,89,89,90,90,91,91,92,92,93,93,94,94,95,95,96,96,97,97,98,98,99,99,100,100,101,101,102,102,103,103,104,104,105,105,106,106,107,107,108,108,109,109,110,110,111,111,112,112,113,113,114,114,115,115,116,116,117,117,118,118,119,119,120,120,121,121,123,123,124,124],"right_children":[2,4,6,8,10,12,14,16,18,20,22,24,26,28,30,32,34,36,38,40,42,44,46,48,50,52,54,56,58,60,62,64,66,-1,68,70,72,74,76,78,80,82,84,86,88,90,92,94,96,98,100,102,104,106,108,110,112,114,116,118,120,122,124,-1,126,128,130,-1,-1,132,134,136,138,140,142,144,146,148,150,152,154,156,158,160,162,164,166,168,170,172,174,176,178,180,182,184,186,188,190,192,194,196,198,200,202,204,206,208,210,212,214,216,218,220,222,224,226,228,230,232,234,236,-1,238,240,-1,-1,-1,-1,-1,-1,-1,-1,-1,-1,-1,-1,-1,-1,-1,-1,-1,-1,-1,-1,-1,-1,-1,-1,-1,-1,-1,-1,-1,-1,-1,-1,-1,-1,-1,-1,-1,-1,-1,-1,-1,-1,-1,-1,-1,-1,-1,-1,-1,-1,-1,-1,-1,-1,-1,-1,-1,-1,-1,-1,-1,-1,-1,-1,-1,-1,-1,-1,-1,-1,-1,-1,-1,-1,-1,-1,-1,-1,-1,-1,-1,-1,-1,-1,-1,-1,-1,-1,-1,-1,-1,-1,-1,-1,-1,-1,-1,-1,-1,-1,-1,-1,-1,-1,-1,-1,-1,-1,-1,-1,-1,-1,-1,-1,-1,-1],"split_conditions":[4.0645105E2,4.0500458E2,4.078293E2,4.02025E-4,1.8542933E1,1.9197977E1,2.3109308E1,9.884204E4,4.043752E2,4.0503296E2,1.00376E2,4.07525E-4,2.429634E0,4.0866327E2,6E0,8E0,1.24476E2,-1.0353513E-2,9.5376E1,1.04226E2,4.06147E-4,4.08296E-4,4.1236E1,4.5086E1,1.3549267E-1,1.0238339E1,3.4986E1,4.9503636E-1,5E0,4.1026804E2,4.08813E-4,1.23676E2,4.0323462E2,-6.7961556E-1,1.30876E2,4.722679E0,2.3803348E7,3.6523375E-1,1.6242642E7,-3.6575928E-1,8.776121E-1,1.165E-1,2.4904382E0,2.3803348E7,8.649625E0,4.0639908E2,2.3343168E-1,1.10463135E-1,4.0756607E2,1.22726E2,2.8216E-1,4.096245E2,3.0386E1,3.9847273E-1,9.620792E4,5.8929688E1,1.26076E2,1.1568021E7,4.11127E-4,2.4922178E7,1.7678594E7,4.3886E1,7E0,-4.9068475E-1,6.4285666E-1,8.7826E1,4.0329843E2,-3.1892157E-1,-5.198445E-1,3.5733032E-1,1.6967306E0,4.9069405E-2,8.7026E1,9.2926E1,1.609292E2,3.7036E1,1.14876E2,4.05611E-4,1.4085116E3,1.9521592E7,3.073371E0,4.061106E2,4.0549957E2,3E0,2.2743928E3,9.9626E1,1.5187557E-1,9.8E1,2.5133656E1,3E0,-2.1334095E0,4.07848E-4,2.9956055E-1,1.00576E2,4.077969E2,1.2773438E0,1.17276E2,4.0725262E2,4.0850186E2,3.6522222E0,8.9376E1,4.07779E-4,1.13226E2,4.0525874E-1,1.10326E2,1.09E3,2.7936E1,4.0600385E2,3.7386E1,4.0724588E2,3E0,2.178303E1,1.29176E2,1.8696553E0,2.2345061E0,-1.0762806E0,-5.489197E-1,1.01076E2,1.953125E-3,6.7063046E-1,3.4E1,2.8288889E1,-3.2863924E-1,2E0,1.11676E2,-3.9948174E-1,-2.5989076E-1,-2.6877204E-1,-3.4664017E-1,-1.0928532E-1,-2.502148E-1,-2.9988313E-1,-1.7190574E-1,-4.091416E-1,-1.0033163E-1,-2.618682E-1,-1.9579567E-1,-4.3194875E-1,-1.332097E-1,-1.566957E-1,-9.055891E-2,-8.272044E-2,5.731201E-2,5.4753114E-2,2.0676422E-1,-2.6855528E-1,-1.6225342E-1,-7.983512E-2,-1.5521987E-2,-6.225554E-2,-1.2097917E-1,-1.168898E-1,-2.636066E-1,-2.0855752E-1,-3.2424593E-1,-1.0091255E-1,-5.31962E-2,-6.096213E-2,2.6151226E-3,-3.714442E-2,1.4550305E-2,-5.355848E-2,-1.6369511E-1,-1.6005652E-1,3.0812163E-2,4.9814326E-3,-8.17224E-2,2.1282189E-1,6.425592E-2,-3.754229E-2,-2.1050477E-1,-3.732352E-1,-1.5954192E-1,9.001474E-2,-1.4479946E-1,-2.5620693E-1,2.4015808E-1,-3.825244E-1,-1.9065095E-2,9.083816E-2,4.1054375E-2,9.519483E-3,5.3561863E-2,1.1154826E-2,-1.1540407E-1,-5.042736E-2,2.5783239E-2,-7.97043E-2,2.8441949E-2,-1.0030168E-1,-3.3919808E-1,7.339085E-2,-4.123831E-2,1.7739274E-1,8.939063E-2,-7.545527E-2,3.5495494E-2,-6.407042E-3,-1.7663708E-1,1.828209E-1,-2.9274115E-2,-3.014886E-1,-1.9874139E-1,2.3219108E-3,4.1817626E-1,-8.335119E-2,-1.5838782E-1,-8.100697E-2,-2.2345896E-1,-3.1130224E-1,-4.3677408E-1,-2.8156264E-2,1.2516291E-1,1.8359717E-3,8.6495735E-2,5.9257884E-2,-7.892247E-2,-2.674314E-1,-2.5314918E-2,1.1624116E-1,-2.0794822E-2,1.6615142E-1,1.9745496E-1,2.682952E-1,1.2202402E-1,3.3874595E-1,2.0282125E-1,2.9786378E-2,1.2462143E-1,1.6922484E-1,6.737633E-2,1.9648317E-1,1.0639676E-1,2.4545383E-1,1.790867E-1,-2.4240192E-2,-1.3151576E-1,-1.4128868E-1,5.872534E-2,-7.231898E-2,4.3204497E-3],"split_indices":[30,25,30,29,16,16,16,15,25,30,3,29,12,30,1,1,3,21,3,3,29,29,2,2,9,9,2,44,1,30,29,3,30,0,3,12,11,44,11,16,13,23,12,11,27,25,44,6,25,3,22,25,2,43,15,20,3,11,29,11,11,2,1,0,44,3,30,0,0,17,14,13,3,3,5,2,3,29,7,11,13,25,30,1,7,3,12,38,27,34,13,29,17,3,25,20,3,30,25,12,3,29,3,43,3,26,2,25,2,25,1,16,3,6,16,13,13,3,20,14,26,16,0,35,3,0,0,0,0,0,0,0,0,0,0,0,0,0,0,0,0,0,0,0,0,0,0,0,0,0,0,0,0,0,0,0,0,0,0,0,0,0,0,0,0,0,0,0,0,0,0,0,0,0,0,0,0,0,0,0,0,0,0,0,0,0,0,0,0,0,0,0,0,0,0,0,0,0,0,0,0,0,0,0,0,0,0,0,0,0,0,0,0,0,0,0,0,0,0,0,0,0,0,0,0,0,0,0,0,0,0,0,0,0,0,0,0,0,0,0,0],"split_type":[0,0,0,0,0,0,0,0,0,0,0,0,0,0,0,0,0,0,0,0,0,0,0,0,0,0,0,0,0,0,0,0,0,0,0,0,0,0,0,0,0,0,0,0,0,0,0,0,0,0,0,0,0,0,0,0,0,0,0,0,0,0,0,0,0,0,0,0,0,0,0,0,0,0,0,0,0,0,0,0,0,0,0,0,0,0,0,0,0,0,0,0,0,0,0,0,0,0,0,0,0,0,0,0,0,0,0,0,0,0,0,0,0,0,0,0,0,0,0,0,0,0,0,0,0,0,0,0,0,0,0,0,0,0,0,0,0,0,0,0,0,0,0,0,0,0,0,0,0,0,0,0,0,0,0,0,0,0,0,0,0,0,0,0,0,0,0,0,0,0,0,0,0,0,0,0,0,0,0,0,0,0,0,0,0,0,0,0,0,0,0,0,0,0,0,0,0,0,0,0,0,0,0,0,0,0,0,0,0,0,0,0,0,0,0,0,0,0,0,0,0,0,0,0,0,0,0,0,0,0,0,0,0,0,0,0,0,0,0,0,0],"sum_hessian":[7.2565E4,3.2322E4,4.0243E4,6.117E3,2.6205E4,1.9585E4,2.0658E4,1.41E3,4.707E3,2.3079E4,3.126E3,1.7216E4,2.369E3,1.8607E4,2.051E3,1.304E3,1.06E2,3.597E3,1.11E3,1.2405E4,1.0674E4,1.429E3,1.697E3,7.275E3,9.941E3,1.39E3,9.79E2,8.311E3,1.0296E4,5.33E2,1.518E3,1.65E2,1.139E3,3.2E1,7.4E1,8.3E2,2.767E3,7.41E2,3.69E2,1.1433E4,9.72E2,3.805E3,6.869E3,1.348E3,8.1E1,1.185E3,5.12E2,6.333E3,9.42E2,3.37E2,9.604E3,1.246E3,1.44E2,4.39E2,5.4E2,8.121E3,1.9E2,6.572E3,3.724E3,3.53E2,1.8E2,3.11E2,1.207E3,6.2E1,1.03E2,6.03E2,5.36E2,1.7E1,5.7E1,7.27E2,1.03E2,2.568E3,1.99E2,7.11E2,3E1,6E0,3.63E2,6.048E3,5.385E3,4.39E2,5.33E2,2.656E3,1.149E3,6.263E3,6.06E2,7.4E2,6.08E2,7.1E1,1E1,1.74E2,1.011E3,3.37E2,1.75E2,1.056E3,5.277E3,4.28E2,5.14E2,2.55E2,8.2E1,6.997E3,2.607E3,1.027E3,2.19E2,3E1,1.14E2,3.4E1,4.05E2,2.72E2,2.68E2,7.411E3,7.1E2,1.15E2,7.5E1,4.24E2,6.148E3,3.047E3,6.77E2,1.84E2,1.69E2,4.7E1,1.33E2,2.86E2,2.5E1,7.12E2,4.95E2,9.3E1,1E1,2.34E2,3.69E2,4.3E1,4.93E2,5.96E2,1.31E2,1.01E2,2E0,7.62E2,1.806E3,1.29E2,7E1,5.42E2,1.69E2,5E0,2.5E1,1E0,5E0,2.7E2,9.3E1,4.381E3,1.667E3,1.706E3,3.679E3,4.04E2,3.5E1,4.8E2,5.3E1,1.5E3,1.156E3,5.24E2,6.25E2,9.04E2,5.359E3,2.06E2,4E2,7.07E2,3.3E1,5.6E1,5.52E2,2.2E1,4.9E1,6E0,4E0,9E1,8.4E1,3.3E1,9.78E2,3.34E2,3E0,1.68E2,7E0,4.06E2,6.5E2,3.915E3,1.362E3,6E1,3.68E2,5.3E1,4.61E2,1.3E2,1.25E2,6E0,7.6E1,6.737E3,2.6E2,7.75E2,1.832E3,1.74E2,8.53E2,1.1E2,1.09E2,7E0,2.3E1,4.4E1,7E1,3.1E1,3E0,1.58E2,2.47E2,9.6E1,1.76E2,9.6E1,1.72E2,1.67E2,7.244E3,4.44E2,2.66E2,9.7E1,1.8E1,5E1,2.5E1,3.4E2,8.4E1,2.164E3,3.984E3,6.8E1,2.979E3,9.9E1,5.78E2,6.4E1,1.2E2,1.3E2,3.9E1,1.4E1,3.3E1,3.4E1,9.9E1,1.53E2,1.33E2,1.8E1,6.94E2,1.07E2,3.88E2],"tree_param":{"num_deleted":"0","num_feature":"45","num_nodes":"241","size_leaf_vector":"1"}},{"base_weights":[3.1194603E-3,-1.0768799E0,6.2803084E-1,-2.178774E0,-7.1895206E-1,8.0525875E-2,9.9763465E-1,-2.749253E0,-1.875614E0,-6.317105E-1,-1.4944415E0,2.991314E-1,-1.3768172E0,8.186783E-1,1.4552584E0,-2.2291343E0,-3.1868806E0,-2.109018E0,-1.5246133E0,-7.2111785E-1,-1.8756837E-1,-1.2194817E0,-1.8901733E0,1.5610418E-1,6.2705904E-1,-9.5236826E-1,-2.0481074E0,1.0276337E0,1.8252034E-1,1.6481923E0,1.0152296E0,-2.9463506E0,-1.7622516E0,-5.463863E0,-3.091395E0,-1.6731561E0,-2.2734747E0,-1.44911E0,-3.3488684E0,-6.7921907E-1,-1.5403705E0,2.085982E-1,-4.310029E-1,-1.3927296E0,-4.3268242E-1,-2.3125384E0,-1.11635E0,2.1123424E-1,-6.9175863E-1,2.4451742E-1,7.527398E-1,-3.138854E-1,-1.2130468E0,-3.5010343E0,-1.6530185E0,8.0270135E-1,1.4215647E0,3.4512246E-1,-2.683573E0,1.0782466E0,1.7244394E0,8.1969434E-1,1.4970906E0,-2.4525127E0,-4.16406E0,-2.6076052E0,-1.4390891E0,-3.605301E0,-5.918968E-1,-3.4794192E0,-2.8307261E0,-2.2337081E0,-1.321381E0,-1.6668252E0,-2.4755101E0,-1.4937794E0,2.8495717E-1,-3.4966881E0,-8.165649E-2,-7.545478E-1,-2.7554506E-1,-8.6008817E-1,-2.0210857E0,-3.1418122E-2,6.086981E-1,-2.8238755E-1,-7.9571366E-1,-1.6340613E0,-9.9022555E-1,2.4246988E0,-6.4066297E-1,-1.7316694E0,-2.9801133E0,-5.454359E-1,-1.6215528E0,8.768504E-1,1.826775E-1,-1.6661364E0,-2.3334211E-1,1.4199884E-1,9.57841E-1,8.997138E-1,2.7467215E-1,-1.5834565E-1,-1.2918929E0,-1.4822248E0,-5.106972E-1,-2.0216553E0,-3.741507E0,-2.415173E0,-1.3176575E0,2.7242625E-1,9.757261E-1,4.033319E-1,1.4988569E0,9.771655E-1,1.2734894E-1,-3.0531497E0,-2.7864245E-1,4.1659546E-1,1.2820219E0,1.6729748E0,2.8452895E0,9.826874E-1,2.4171695E-1,1.2668502E0,1.9611827E0,-2.5848547E-1,3.6005292E-2,-3.2238612E-1,-4.514583E-1,-3.4789264E-1,-1.7842287E-1,-1.3387159E-1,-4.314201E-1,-2.2345936E-1,-4.2651495E-1,-3.9007363E-1,-3.0947432E-1,-2.4343045E-1,-3.3551794E-1,-2.0207377E-1,-3.2536554E-1,-1.7547016E-1,-9.74992E-2,-1.4255962E-1,-2.5581184E-1,-2.7295527E-1,-1.9434005E-1,-9.520568E-2,-1.6208278E-1,1.0150596E-1,-3.5105634E-1,-3.8386258E-1,-2.630021E-1,-5.433197E-2,-8.764273E-2,4.840204E-3,-5.0948884E-2,-1.0128712E-1,2.3604704E-2,-2.1853207E-1,-1.3993034E-1,8.438138E-2,-1.0496402E-2,9.115311E-2,2.8121833E-2,-4.213592E-2,1.4818241E-2,-9.330668E-2,3.893631E-2,-1.7561668E-1,-7.3474206E-2,-8.537805E-2,-2.0387173E-1,-3.3836365E-2,2.6462293E-1,1.3900198E-1,-6.986702E-2,-1.1010217E-1,-2.662713E-1,-3.519065E-1,-1.9422941E-1,3.0010719E-2,-8.0901556E-2,-1.11388735E-1,-2.4837458E-1,3.9374273E-2,1.4812006E-1,3.1029314E-2,8.403336E-3,3.652504E-1,-1.7569162E-1,-1.1594398E-2,-1.8255997E-1,-1.1937385E-1,2.0791858E-2,1.6480586E-1,6.79321E-2,8.2016416E-2,1.523988E-1,4.639229E-2,-2.9434597E-2,-3.4064107E-2,5.954799E-2,8.3095096E-2,-1.4613897E-1,-7.12697E-2,-1.8580471E-1,-3.8721006E-2,-3.3700868E-1,-1.2466126E-1,-2.7135906E-1,1.12477625E-2,-3.7880573E-1,-2.6327997E-1,-1.1215892E-1,-1.4357528E-1,7.834178E-2,3.9677028E-2,-6.1988015E-2,1.0755803E-1,1.5710572E-2,-8.6899266E-2,8.9512676E-2,1.06723346E-1,1.5900986E-1,-2.9903797E-2,1.24972895E-1,-8.944137E-3,9.420879E-2,-3.6583146E-1,-2.364455E-1,-1.3117842E-1,1.6917301E-2,6.7521304E-2,-2.706553E-2,-4.321524E-2,1.3761231E-1,1.3928385E-1,1.7970647E-1,1.8416148E-1,3.216886E-1,-4.6348572E-4,1.0462079E-1,9.643025E-3,1.8273866E-1,1.7552428E-1,8.6451955E-2,1.4159654E-1,2.28048E-1],"categories":[],"categories_nodes":[],"categories_segments":[],"categories_sizes":[],"default_left":[0,0,0,0,1,1,0,0,0,0,0,0,1,0,1,1,0,0,1,0,0,0,0,1,0,0,0,1,1,0,1,0,0,0,0,0,0,1,0,0,1,0,0,0,0,0,0,0,0,0,1,0,1,0,0,0,0,0,0,0,0,0,0,0,0,0,0,0,0,0,0,0,0,0,0,0,1,0,0,0,0,0,0,0,0,0,0,0,0,0,0,0,1,0,1,1,0,0,0,0,0,1,0,0,0,0,0,0,0,0,0,0,0,0,0,0,0,0,0,0,0,0,0,0,0,0,0,0,0,0,0,0,0,0,0,0,0,0,0,0,0,0,0,0,0,0,0,0,0,0,0,0,0,0,0,0,0,0,0,0,0,0,0,0,0,0,0,0,0,0,0,0,0,0,0,0,0,0,0,0,0,0,0,0,0,0,0,0,0,0,0,0,0,0,0,0,0,0,0,0,0,0,0,0,0,0,0,0,0,0,0,0,0,0,0,0,0,0,0,0,0,0,0,0,0,0,0,0,0,0,0,0,0,0,0,0,0,0,0,0,0,0,0,0,0,0,0,0,0,0,0],"id":6,"left_children":[1,3,5,7,9,11,13,15,17,19,21,23,25,27,29,31,33,35,37,39,41,43,45,47,49,51,53,55,57,59,61,63,65,67,69,71,73,75,77,79,81,83,85,87,89,91,93,95,97,99,101,103,105,107,109,111,113,115,117,119,121,123,125,127,129,131,133,135,-1,137,139,141,143,145,147,149,151,153,-1,155,157,159,161,163,165,167,169,171,173,175,177,179,181,183,185,187,189,191,193,195,197,199,201,203,205,207,209,211,213,215,217,219,221,223,225,227,229,231,233,235,237,239,241,243,245,247,249,-1,-1,-1,-1,-1,-1,-1,-1,-1,-1,-1,-1,-1,-1,-1,-1,-1,-1,-1,-1,-1,-1,-1,-1,-1,-1,-1,-1,-1,-1,-1,-1,-1,-1,-1,-1,-1,-1,-1,-1,-1,-1,-1,-1,-1,-1,-1,-1,-1,-1,-1,-1,-1,-1,-1,-1,-1,-1,-1,-1,-1,-1,-1,-1,-1,-1,-1,-1,-1,-1,-1,-1,-1,-1,-1,-1,-1,-1,-1,-1,-1,-1,-1,-1,-1,-1,-1,-1,-1,-1,-1,-1,-1,-1,-1,-1,-1,-1,-1,-1,-1,-1,-1,-1,-1,-1,-1,-1,-1,-1,-1,-1,-1,-1,-1,-1,-1,-1,-1,-1,-1,-1,-1,-1],"loss_changes":[4.896023E4,1.0485488E4,9.299166E3,1.1222812E3,1.3570254E3,5.9008916E3,2.2455059E3,5.073125E2,3.4578516E2,7.1638477E2,2.1847119E2,7.5531494E2,6.86437E2,2.6216963E3,6.5296387E2,3.4171826E2,2.4944727E2,1.7941016E2,2.2998828E2,5.145254E2,2.9182275E2,1.6297095E2,2.6869214E2,5.244126E2,2.3496606E2,2.462815E2,5.3093555E2,1.3144199E3,2.2742344E3,2.3102441E2,2.2047437E2,2.3453735E2,1.6835498E2,1.9260742E1,1.0930078E2,1.3586902E2,2.2298535E2,1.27382324E2,2.2224548E1,4.3435596E2,2.3698767E2,1.1064627E2,1.0134912E2,9.386755E1,1.3110641E2,2.0268604E2,8.420163E1,2.0003027E2,3.0558087E2,8.842312E1,2.5839307E2,6.5358734E1,1.9813123E2,6.3230225E1,1.8519287E2,8.670537E2,4.2399023E2,6.353699E2,2.320166E2,8.508179E1,2.6779688E2,1.5765234E2,6.996179E1,1.0961914E2,2.3674683E1,1.1790735E2,1.2639636E2,1.3226471E0,0E0,6.3938965E1,1.3944531E2,5.207422E1,6.3581604E1,9.65459E1,1.8232324E2,1.0843872E2,1.1995043E2,8.574158E0,0E0,3.0956348E2,1.7046605E2,5.1150177E1,4.0546753E1,4.6499138E1,4.258583E1,7.9825195E1,8.8586914E1,6.602429E1,5.1335236E1,1.0076935E1,2.5001183E1,1.6675763E2,1.3187988E2,3.1444302E1,6.551547E1,1.25838165E2,1.2711813E2,1.1215582E2,8.708374E1,9.358274E1,2.8100815E1,1.3854492E2,9.35013E1,5.1460114E1,2.2443443E1,2.1847192E2,1.0215272E2,1.2705597E1,3.0924805E1,6.0107178E1,1.286623E2,2.5843353E2,5.824116E2,2.3980391E2,1.9576562E2,4.1187598E2,6.067998E2,8.595776E1,1.687757E1,2.7020756E1,7.882794E1,1.5462207E2,7.090588E1,8.197351E1,8.506317E1,8.808441E1,3.5592163E1,0E0,0E0,0E0,0E0,0E0,0E0,0E0,0E0,0E0,0E0,0E0,0E0,0E0,0E0,0E0,0E0,0E0,0E0,0E0,0E0,0E0,0E0,0E0,0E0,0E0,0E0,0E0,0E0,0E0,0E0,0E0,0E0,0E0,0E0,0E0,0E0,0E0,0E0,0E0,0E0,0E0,0E0,0E0,0E0,0E0,0E0,0E0,0E0,0E0,0E0,0E0,0E0,0E0,0E0,0E0,0E0,0E0,0E0,0E0,0E0,0E0,0E0,0E0,0E0,0E0,0E0,0E0,0E0,0E0,0E0,0E0,0E0,0E0,0E0,0E0,0E0,0E0,0E0,0E0,0E0,0E0,0E0,0E0,0E0,0E0,0E0,0E0,0E0,0E0,0E0,0E0,0E0,0E0,0E0,0E0,0E0,0E0,0E0,0E0,0E0,0E0,0E0,0E0,0E0,0E0,0E0,0E0,0E0,0E0,0E0,0E0,0E0,0E0,0E0,0E0,0E0,0E0,0E0,0E0,0E0,0E0,0E0,0E0,0E0],"parents":[2147483647,0,0,1,1,2,2,3,3,4,4,5,5,6,6,7,7,8,8,9,9,10,10,11,11,12,12,13,13,14,14,15,15,16,16,17,17,18,18,19,19,20,20,21,21,22,22,23,23,24,24,25,25,26,26,27,27,28,28,29,29,30,30,31,31,32,32,33,33,34,34,35,35,36,36,37,37,38,38,39,39,40,40,41,41,42,42,43,43,44,44,45,45,46,46,47,47,48,48,49,49,50,50,51,51,52,52,53,53,54,54,55,55,56,56,57,57,58,58,59,59,60,60,61,61,62,62,63,63,64,64,65,65,66,66,67,67,69,69,70,70,71,71,72,72,73,73,74,74,75,75,76,76,77,77,79,79,80,80,81,81,82,82,83,83,84,84,85,85,86,86,87,87,88,88,89,89,90,90,91,91,92,92,93,93,94,94,95,95,96,96,97,97,98,98,99,99,100,100,101,101,102,102,103,103,104,104,105,105,106,106,107,107,108,108,109,109,110,110,111,111,112,112,113,113,114,114,115,115,116,116,117,117,118,118,119,119,120,120,121,121,122,122,123,123,124,124,125,125,126,126],"right_children":[2,4,6,8,10,12,14,16,18,20,22,24,26,28,30,32,34,36,38,40,42,44,46,48,50,52,54,56,58,60,62,64,66,68,70,72,74,76,78,80,82,84,86,88,90,92,94,96,98,100,102,104,106,108,110,112,114,116,118,120,122,124,126,128,130,132,134,136,-1,138,140,142,144,146,148,150,152,154,-1,156,158,160,162,164,166,168,170,172,174,176,178,180,182,184,186,188,190,192,194,196,198,200,202,204,206,208,210,212,214,216,218,220,222,224,226,228,230,232,234,236,238,240,242,244,246,248,250,-1,-1,-1,-1,-1,-1,-1,-1,-1,-1,-1,-1,-1,-1,-1,-1,-1,-1,-1,-1,-1,-1,-1,-1,-1,-1,-1,-1,-1,-1,-1,-1,-1,-1,-1,-1,-1,-1,-1,-1,-1,-1,-1,-1,-1,-1,-1,-1,-1,-1,-1,-1,-1,-1,-1,-1,-1,-1,-1,-1,-1,-1,-1,-1,-1,-1,-1,-1,-1,-1,-1,-1,-1,-1,-1,-1,-1,-1,-1,-1,-1,-1,-1,-1,-1,-1,-1,-1,-1,-1,-1,-1,-1,-1,-1,-1,-1,-1,-1,-1,-1,-1,-1,-1,-1,-1,-1,-1,-1,-1,-1,-1,-1,-1,-1,-1,-1,-1,-1,-1,-1,-1,-1,-1],"split_conditions":[4.06596E-4,4.04519E-4,4.0834787E2,7.017682E-2,1.5756571E1,1.9197977E1,4.1034113E2,2.5784302E-1,1.8977274E1,1.1E1,1.493359E0,4.079339E2,2.7E1,6.9633335E-1,2.1359162E7,8.7026E1,-6.1464787E-1,4.0223428E2,4.760205E-1,4.0717566E2,9.547424E-2,9.190561E4,2E0,2.063622E0,2.184338E-1,-9.6261024E-1,4.0639908E2,2.3282456E-1,1.22276E2,9.1086336E4,1.20926E2,2.3803348E7,4.02025E-4,1.22076E2,1.0951539E0,2.9433367E0,5.9765714E-1,1.20926E2,5.8637385E0,5E0,1.5225408E9,8.8033195E4,1.00126E2,2.28775E7,6.559874E-2,1.5330816E9,4.05856E-4,3.386856E-2,1E1,1.04926E2,4.1936E1,3.0300329E0,1.11676E2,3.4486E1,3.027143E-1,3E0,2E0,6E0,1.29176E2,1.4711627E0,7E0,4.10351E-4,9.9E1,4.040885E2,1.2205535E0,2.758967E1,1.19776E2,4.5286E1,-5.918968E-1,4.0128433E2,5.0036E1,1.5680609E7,7.5581064E0,9.645996E-1,1.7202738E1,1.4697352E-2,2.178303E1,4E0,-8.165649E-2,1.5330816E9,2.5627136E-1,2.3953096E7,4.06112E-4,5.30775E-4,-2.4957657E-1,9.2376E1,9.066107E0,3.0618286E-1,9.4976E1,1.3270674E1,3.4886E1,4.3336E1,1.16426E2,2.3649012E1,4.1286E1,2.3777778E-1,1.3344316E1,2.13125E-1,4.297787E0,2E0,-1.1913366E0,1.3725321E1,2.87E-1,4.08195E-4,9.620792E4,8E0,3.5636E1,3.874E0,8E0,8.028811E0,1E1,3.6238952E0,2.2665515E0,9.353022E4,-5.9561067E0,1.5174432E9,1E1,4.51964E-1,7.229966E-2,1.16676E2,8.9076E1,4.1545162E-1,9.069824E-1,8.4526E1,4.11821E-4,1.22726E2,1.2837624E1,-2.5848547E-1,3.6005292E-2,-3.2238612E-1,-4.514583E-1,-3.4789264E-1,-1.7842287E-1,-1.3387159E-1,-4.314201E-1,-2.2345936E-1,-4.2651495E-1,-3.9007363E-1,-3.0947432E-1,-2.4343045E-1,-3.3551794E-1,-2.0207377E-1,-3.2536554E-1,-1.7547016E-1,-9.74992E-2,-1.4255962E-1,-2.5581184E-1,-2.7295527E-1,-1.9434005E-1,-9.520568E-2,-1.6208278E-1,1.0150596E-1,-3.5105634E-1,-3.8386258E-1,-2.630021E-1,-5.433197E-2,-8.764273E-2,4.840204E-3,-5.0948884E-2,-1.0128712E-1,2.3604704E-2,-2.1853207E-1,-1.3993034E-1,8.438138E-2,-1.0496402E-2,9.115311E-2,2.8121833E-2,-4.213592E-2,1.4818241E-2,-9.330668E-2,3.893631E-2,-1.7561668E-1,-7.3474206E-2,-8.537805E-2,-2.0387173E-1,-3.3836365E-2,2.6462293E-1,1.3900198E-1,-6.986702E-2,-1.1010217E-1,-2.662713E-1,-3.519065E-1,-1.9422941E-1,3.0010719E-2,-8.0901556E-2,-1.11388735E-1,-2.4837458E-1,3.9374273E-2,1.4812006E-1,3.1029314E-2,8.403336E-3,3.652504E-1,-1.7569162E-1,-1.1594398E-2,-1.8255997E-1,-1.1937385E-1,2.0791858E-2,1.6480586E-1,6.79321E-2,8.2016416E-2,1.523988E-1,4.639229E-2,-2.9434597E-2,-3.4064107E-2,5.954799E-2,8.3095096E-2,-1.4613897E-1,-7.12697E-2,-1.8580471E-1,-3.8721006E-2,-3.3700868E-1,-1.2466126E-1,-2.7135906E-1,1.12477625E-2,-3.7880573E-1,-2.6327997E-1,-1.1215892E-1,-1.4357528E-1,7.834178E-2,3.9677028E-2,-6.1988015E-2,1.0755803E-1,1.5710572E-2,-8.6899266E-2,8.9512676E-2,1.06723346E-1,1.5900986E-1,-2.9903797E-2,1.24972895E-1,-8.944137E-3,9.420879E-2,-3.6583146E-1,-2.364455E-1,-1.3117842E-1,1.6917301E-2,6.7521304E-2,-2.706553E-2,-4.321524E-2,1.3761231E-1,1.3928385E-1,1.7970647E-1,1.8416148E-1,3.216886E-1,-4.6348572E-4,1.0462079E-1,9.643025E-3,1.8273866E-1,1.7552428E-1,8.6451955E-2,1.4159654E-1,2.28048E-1],"split_indices":[29,29,25,8,16,16,25,17,16,1,24,25,42,24,11,3,14,25,44,25,17,15,34,12,8,14,25,22,3,15,3,11,29,3,6,12,24,3,9,26,4,15,3,11,12,4,29,12,1,3,2,12,3,2,22,1,1,1,3,6,1,29,37,25,24,16,3,2,0,25,2,11,28,19,16,12,16,34,0,4,17,11,29,28,14,3,6,17,3,9,2,2,3,16,2,22,9,24,12,1,14,16,22,29,15,1,2,24,1,9,1,16,12,15,16,4,1,44,6,3,3,24,19,3,29,3,28,0,0,0,0,0,0,0,0,0,0,0,0,0,0,0,0,0,0,0,0,0,0,0,0,0,0,0,0,0,0,0,0,0,0,0,0,0,0,0,0,0,0,0,0,0,0,0,0,0,0,0,0,0,0,0,0,0,0,0,0,0,0,0,0,0,0,0,0,0,0,0,0,0,0,0,0,0,0,0,0,0,0,0,0,0,0,0,0,0,0,0,0,0,0,0,0,0,0,0,0,0,0,0,0,0,0,0,0,0,0,0,0,0,0,0,0,0,0,0,0,0,0,0,0],"split_type":[0,0,0,0,0,0,0,0,0,0,0,0,0,0,0,0,0,0,0,0,0,0,0,0,0,0,0,0,0,0,0,0,0,0,0,0,0,0,0,0,0,0,0,0,0,0,0,0,0,0,0,